0.54292,0.69988,0.0043377,0.039974,0.45643,0.23812,-0.22217,0.43448,-0.66028,-0.15754,-0.021457,0.47383,1.1473,-0.18579,-0.23583,0.436,0.17543,-0.83419,-0.41487,-0.73484,0.04741,0.4641,-0.2515,-0.37955,-0.062194
0.32394,0.32394,-0.054588,-0.054588,-0.083855,-0.10237,0.27967,0.067286,0.35374,0.33018,-0.13709,-0.29181,-0.23261,0.24614,0.22694,-0.12721,0.10865,-0.0037853,0.38917,-0.13444,-0.11151,0.091715,0.027221,-0.26825,-0.16649
1.0359,0.047242,0.19066,0.090066,0.019814,-0.11586,-0.32845,0.17962,-0.10821,0.25439,0.2398,0.18744,0.046584,0.16819,-0.40038,-0.0070249,-0.36667,0.061574,-0.35003,0.11968,-0.084086,0.064072,0.038059,0.16998,-0.15237
0.62937,0.54084,0.88726,-0.099716,-0.56759,-0.18579,1.1981,0.32615,-0.61748,0.16599,0.25295,0.43209,-0.26001,-0.97106,-0.11052,0.40312,0.3278,-0.15336,-0.17996,-0.20404,-0.35833,0.17816,-0.73971,0.61069,-0.50494
0.24781,0.18448,0.13541,0.13542,0.16909,0.072126,0.13116,0.022333,-0.070115,-0.055793,-0.0039074,-0.01416,-0.012748,0.10756,0.018106,-0.0012482,-0.014955,-0.052499,0.037115,0.1206,-0.065561,-0.067127,0.020071,-0.04436,0.001192
0.15762,1.0846,0.9412,-0.27049,0.30458,-0.016467,0.021246,0.34101,0.17032,-0.114,-0.17025,0.2991,-0.30499,-0.22503,-0.61066,-0.031212,-0.54534,0.15728,0.053324,0.14708,-0.1054,-0.32127,0.01955,0.019551,-0.0013945
0.62849,0.9377,-0.47364,-0.25329,-0.33193,-0.058279,-0.27982,0.48004,0.26294,0.69561,0.23643,-0.13002,-0.45751,0.18951,-0.77087,0.1849,-0.40315,0.29882,0.33433,0.2505,-0.10914,0.12598,0.035451,-0.25696,-0.13611
0.75403,0.51123,-0.98137,-0.0016872,0.021066,0.45901,0.68453,0.8226,-0.070863,1.1384,0.097497,0.68198,0.023423,0.88746,0.78686,-0.73859,-0.17046,-1.3362,0.087033,-1.3805,-0.30772,-1.3886,-0.2182,0.4161,0.22302
1.2032,0.036721,0.00091413,0.010669,0.26931,0.33698,-0.25254,-0.11707,0.31307,0.54264,-0.28458,-0.36069,-0.32859,-0.20275,-0.1536,0.23847,0.0046327,-0.80461,-0.22741,0.17009,0.70954,-0.11986,-0.036126,-0.065705,0.11725
0.58374,-0.056452,0.33476,0.026189,0.11075,0.041667,0.28934,0.22417,-0.43004,0.16349,0.070179,-0.055383,0.15612,0.12113,-0.36998,0.36039,0.14749,-0.37902,0.076759,-0.17684,-0.039054,0.16317,-0.40834,0.040906,0.0048604
0.15708,0.19605,0.42952,0.34345,0.34224,-0.21537,-0.065818,0.082581,-0.23189,0.13554,0.16908,0.15464,-0.13794,-0.20227,0.15599,0.36771,-0.060667,0.10117,-0.032742,0.041302,0.058661,-0.060933,-0.79058,0.034855,0.028318
0.68894,0.087474,-0.00016696,0.042278,0.30809,-0.10442,0.095,-0.13886,-0.017379,0.15027,-0.04902,-0.0050742,0.03877,-0.16319,0.10903,0.099027,0.13922,0.0182,-0.060251,-0.060967,-0.070557,0.00027577,-0.032209,0.003208,-0.077693
0.77543,0.77653,-0.33541,-0.031829,0.38035,-0.0020282,-0.0082683,-0.27845,-0.067333,0.078413,-0.34212,-0.089297,-0.12223,-0.053267,0.51237,-0.19143,-0.011387,0.3228,-0.17723,0.17691,-0.50741,0.28031,0.3108,-0.16749,-0.22875
0.55191,0.1801,0.14742,-0.1386,0.13036,-0.28057,0.12778,-0.31189,-0.14945,0.086608,0.33921,0.0019912,0.098771,0.51114,0.069207,-0.23412,0.01211,0.040158,0.20637,-0.054356,-0.14677,0.25915,-0.34937,-0.36815,0.271
0.312,-0.029564,-0.28117,0.27646,0.33831,-0.74204,0.12965,0.041861,0.27652,0.48196,0.3045,0.24788,-0.32917,-0.19532,-0.28799,-0.090077,0.48884,0.28638,0.086121,-0.13769,0.58772,-0.53707,-0.36633,0.31687,-0.17864
0.384,0.55596,0.36513,0.37782,0.18398,-0.10272,0.647,-0.0069262,0.013297,0.12964,-0.32365,-0.094696,-0.25855,-0.39838,0.21154,-0.6104,-0.15513,-0.077705,0.10441,0.033047,0.14084,-0.11735,-0.16632,-0.072813,0.23795
-0.19525,0.37006,-0.00051242,-0.19761,0.20033,0.8281,0.49251,1.0273,0.030956,-0.38456,0.55193,0.11107,-0.06864,0.43198,-0.65235,0.00014294,-0.16066,-0.46623,-0.51368,-0.14878,0.39071,-0.14813,-0.40687,0.86505,-0.95686
0.35269,-0.025454,0.31109,-0.0038376,0.3372,-0.025818,0.024493,-0.05673,-0.068221,0.21538,0.0081041,0.25675,-0.16819,0.18835,-0.17861,-0.39765,0.27587,-0.030962,0.082572,-0.21502,-0.3335,0.1957,-0.047624,-0.10341,0.40682
0.35099,-0.25181,0.92686,-0.45376,0.098412,0.57,0.33314,-0.3044,-0.54312,-0.31276,0.24308,-0.38993,0.54295,0.10091,-0.22611,0.20663,-0.24528,-0.42591,0.16216,-0.046715,-0.36153,-0.33461,1.1801,0.5175,-0.33681
0.34253,0.35885,0.14807,0.24711,0.0014582,0.032315,0.63148,0.25832,0.36229,-0.45403,0.43826,-0.15141,-0.20887,-0.17889,-0.11095,-0.20692,0.11425,-0.090467,-0.14958,-0.22804,-0.44914,0.037716,0.25178,0.02374,-0.019868
0.35125,0.29457,0.14885,0.10557,0.37033,0.38432,0.14442,-0.077318,-0.24643,-0.32653,-0.35274,0.20976,-0.053538,0.13508,-0.22238,0.54299,-0.59054,-0.51974,-0.029005,-0.065261,0.42168,-0.25081,-0.0098214,0.17415,0.46114
0.092463,-0.81743,-0.079499,0.40501,0.72092,0.20059,0.064171,-0.021657,0.21536,0.15821,0.47876,-0.27561,0.080701,0.26546,-0.10731,0.36432,-0.56623,0.039773,0.12746,-0.0035994,-0.30703,-0.039423,0.015624,0.25884,-0.26986
0.77424,0.011028,-0.071073,0.31148,-0.49534,0.31906,0.35078,0.47691,-0.62699,-0.22826,0.2824,-0.048612,-0.029299,-0.25538,-0.19862,0.00075425,0.09565,0.14261,0.0045472,0.07415,-0.37361,-0.21491,0.38415,0.37881,-0.064483
0.51842,0.73594,0.18695,0.014016,-0.073068,0.4845,-0.024899,-0.52425,0.2929,-0.17739,-0.059195,-0.10296,0.34258,-0.10498,0.1376,0.032333,-0.054518,0.18776,0.13572,-0.16228,-0.44116,-0.0018244,-0.28154,0.25121,-0.31186
-0.03974,0.4708,0.7536,0.49023,-0.2548,-0.013076,-0.080345,-0.051561,-0.32387,-0.31112,0.30162,-0.3335,-0.32019,-0.30876,0.29587,0.86495,0.12051,-0.29064,0.11582,0.041757,-0.24165,0.3426,-0.02888,-0.070169,-0.12946
0.55243,0.063218,0.26706,0.19827,0.047509,-0.066333,0.35631,0.037422,0.29433,-0.10226,0.10927,-0.17599,-0.1823,-0.019436,-0.026808,0.23803,-0.51805,0.25934,0.10283,-0.31419,-0.37421,0.10612,-0.15467,0.29572,0.0063922
0.46054,0.14516,0.11217,0.066994,0.14312,0.10615,-0.08752,-0.017199,-0.029005,0.069245,0.17256,0.11578,-0.090061,0.06748,-0.050287,-0.10886,0.14779,-0.059369,0.056406,0.11186,-0.017667,-0.22036,-0.071082,-0.076775,0.052943
0.21394,0.27741,0.27593,0.19443,0.062071,0.12621,0.055368,-0.24839,-0.0046908,0.0077738,0.18039,0.10182,-0.046248,0.13581,-0.16101,0.040688,-0.090137,0.13408,0.14642,-0.04181,0.061861,0.14863,-0.25662,-0.17599,-0.13793
0.83136,0.23603,0.29916,-0.016254,0.24448,0.42464,0.34128,-0.0026828,0.1144,-0.52275,-0.18218,-0.089719,-0.23007,0.055385,0.20586,-0.20902,0.37536,-0.044837,-0.025655,0.23226,-0.23437,-0.2895,-0.28347,-0.077201,-0.15253
0.41814,0.18056,0.49946,0.3372,-0.094578,0.27302,0.17863,-0.13484,0.3594,-0.22771,0.19634,-0.28355,-0.18644,-0.23396,-0.23025,-0.29876,-0.24462,0.64613,-0.10599,0.27175,-0.029466,-0.10943,0.056218,-0.26126,0.023997
0.3959,0.35607,0.40309,-0.18183,0.1238,-0.11315,0.14737,-0.34438,0.36731,0.021106,-0.11642,0.032815,0.13365,-0.058427,-0.29453,-0.2746,0.14471,-0.13395,-0.063355,-0.027975,0.039395,-0.09827,0.50788,-0.0058085,0.039603
0.49986,-0.10009,0.62351,-0.19353,0.8424,0.33627,-0.30558,-0.31396,-0.22541,0.21099,0.34458,-0.40324,-0.37642,-0.19805,0.06612,-0.0024414,0.20879,0.056952,0.068396,-0.33644,0.024849,0.31792,-0.083014,-0.030001,-0.032458
0.40969,0.31429,0.42141,-0.12476,0.23001,0.38065,0.49925,0.02685,-0.070525,0.086657,-0.36479,-0.132,-0.10623,-0.095012,0.40672,-0.71111,0.34886,-0.2002,-0.42697,0.44033,0.33562,-0.015094,0.047292,0.035687,-0.73664
0.46378,0.069146,-0.12498,0.070967,0.2397,0.15605,-0.28842,-0.37463,0.30898,0.33884,0.19944,-0.16337,0.040706,-0.051991,-0.041127,0.60177,-0.00049308,-0.090203,-0.056747,-0.13564,-0.32988,0.040727,0.00035739,-0.2716,0.39862
0.3183,0.054073,0.39639,-0.068656,0.31608,0.17298,0.19785,0.13813,-0.51435,-0.22281,-0.36621,-0.13617,0.27087,0.035228,0.4794,0.3294,-0.050824,-0.042414,-0.19169,-0.2757,-0.25185,0.019255,0.10881,0.1341,0.14982
0.32469,0.48052,0.01685,0.26549,-0.11596,0.07575,0.27777,0.31233,0.10939,0.19237,-0.02767,-0.01649,0.060479,-0.01436,-0.06738,-0.22507,-0.054294,0.10615,-0.24718,-0.082989,-0.30033,-0.23702,0.25053,-0.20066,0.11708
0.35027,0.38744,-0.083255,0.32341,0.15984,-0.13087,1.1454,0.33386,0.3798,0.37972,-0.01512,-0.61696,0.46608,0.098394,-0.24783,-0.18372,-0.10566,0.1464,0.20553,-0.34006,-0.60923,-0.17014,0.092894,-0.62809,-0.33815
1.1992,0.0276,0.34599,0.47276,0.067006,-5.3841e-05,0.064527,-0.13238,0.082122,0.10175,0.20954,0.023618,-0.016632,0.28782,-0.61365,0.23095,-0.08762,-0.10101,0.12632,0.22876,0.027918,-0.55819,-1.1158,0.36062,-0.23119
0.34011,-0.073983,0.092038,0.18061,-0.14903,0.1863,0.020849,0.25826,0.047656,0.070785,0.080216,-0.0060214,0.014924,-0.011676,0.14764,-0.0062364,0.088167,-0.18816,-0.14183,0.054254,0.042004,-0.09189,-0.0063102,0.050584,0.00072822
-1.384,1.0729,2.4042,-1.1832,-0.092505,1.5342,-0.83701,0.38727,-0.089972,0.78429,1.152,-0.20801,-1.4775,-0.14926,0.77617,-0.17856,-1.6615,3.5459,-2.0446,2.155,0.11252,-1.2556,0.60676,-3.3166,0.34715
0.26532,0.38508,0.43884,-0.26577,0.1447,0.051299,0.43181,-0.12571,0.59445,0.1968,-0.1727,0.12596,0.13758,-0.27226,0.050218,0.0037957,-0.54232,-0.1696,0.35211,0.30451,-0.02318,-0.35077,0.10729,-0.25126,-0.4162
0.43366,-0.39156,0.37413,0.097163,0.19928,0.11789,0.044712,0.24075,0.0016841,0.26526,0.7297,-0.03183,0.3332,-0.2794,-0.26002,0.093044,-0.061995,-0.16127,0.036166,-0.20446,-0.28943,-0.15371,-0.097445,0.020804,-0.056313
0.34314,-0.11903,0.019767,0.27803,0.13201,0.19626,-0.046895,0.09675,-0.21036,0.20514,0.065426,0.3824,0.16963,0.20357,-0.11474,-0.21199,5.7549e-05,-0.26775,-0.1853,0.048417,0.04543,-0.090946,-0.093244,0.10542,0.048792
0.43685,0.24328,0.17252,0.30187,-0.10357,-0.053032,0.20216,0.03496,0.3153,-0.12881,0.16117,0.070189,-0.030026,-0.094981,0.1416,-0.13307,0.13225,-0.22112,-0.14361,0.0058309,0.052462,0.10138,-0.17506,-0.12239,-0.16614
0.49283,0.37905,-0.53944,0.36472,0.12371,-0.24267,0.43646,0.12246,-0.15727,0.019394,0.11726,-0.014438,-0.48522,0.36134,0.3644,0.044829,0.67695,0.16776,-0.2196,-0.29985,0.15748,0.0058357,-0.69307,-0.060952,-0.12199
0.30943,0.28786,0.61166,0.14631,-0.2383,-0.007508,0.16927,-0.23478,0.069213,-0.027302,0.41438,-0.372,0.069571,-0.18814,-0.10569,-0.19175,-0.09133,-0.091333,0.16775,0.16774,-0.025498,0.13656,-0.066392,0.16182,-0.07156
0.65328,0.2567,0.31279,0.4515,0.047019,-0.11446,-0.21954,-0.16212,-0.11511,0.28629,-0.15,-0.10873,-0.083122,0.10494,-0.13147,-0.046157,0.032898,0.33818,-0.28465,0.14225,0.027573,-0.31296,0.065741,-0.0003372,0.0095053
0.39823,0.38982,0.21303,-0.21367,0.19767,-0.082136,-0.12387,0.028887,0.15111,-0.05325,-0.0011284,-0.027914,0.18197,0.043122,0.021977,0.04796,0.13759,0.00352,-0.14711,-0.088837,0.029053,-0.23606,-0.098553,0.12749,0.10111
-0.14303,0.32878,0.81627,0.081624,0.23122,0.29842,-0.15091,0.13686,-0.013102,-0.0097576,0.24816,-0.24482,0.51773,-0.38626,0.23903,-0.2523,-0.41676,0.51184,-0.64224,-0.069426,-0.011221,0.73976,-0.6787,0.037948,-0.16911
0.26368,-0.33263,1.3426,-0.28105,-0.46626,0.19434,-0.1657,0.40051,0.19132,-0.19328,-0.16456,1.258,0.24345,-0.63879,-0.64673,0.49488,-0.24733,0.1261,-0.36043,0.15619,-0.21483,0.50363,0.28192,-0.53525,-0.20984
0.66224,0.036477,-0.029047,-0.012296,0.080421,0.18777,0.20281,-0.36381,-0.30591,0.31729,-0.13619,0.22635,0.50705,-0.10665,-0.076422,0.24495,-0.27867,0.014348,-0.10266,-0.22777,0.0049956,0.053211,0.039444,0.092235,-0.030159
0.65057,0.22304,0.079016,0.30675,0.093228,-0.083808,0.26348,0.022159,0.11495,-0.12165,0.13782,-0.26883,0.066053,0.42386,-0.016471,-0.041792,-0.18107,-0.11408,-0.37604,-0.56138,0.011431,0.24419,0.034417,-0.11837,0.21251
0.56465,-0.016959,0.15825,0.068988,0.23322,0.35363,-0.31476,0.12289,-0.061688,-0.1808,-0.021739,0.0092973,-0.10826,0.14083,0.013885,0.11741,-0.033761,0.10002,-0.32664,0.02883,0.1214,-0.0058434,0.11496,0.23899,-0.3168
-0.090079,0.033135,0.2661,-0.082171,0.02009,0.10247,0.25843,0.21797,0.12421,0.38293,0.043603,0.68232,0.090928,-0.15917,-0.10978,0.47589,-0.33618,0.081317,-0.053299,-0.22901,0.10539,-0.10285,-0.29838,-0.6976,0.27373
0.25205,-0.005439,0.41468,0.28485,-0.18085,0.35331,-0.17985,0.12268,-0.015643,0.00081958,0.073084,0.16612,-0.19265,0.09846,-5.6944e-05,0.14796,0.11581,0.33223,0.10282,-0.12446,0.049262,-0.22081,-0.12724,-0.25078,-0.21638
0.75292,0.1313,0.016255,0.109,0.082499,-0.13005,0.12614,-0.12708,0.16504,0.042823,0.065329,0.027703,0.022087,0.089198,-0.020273,-0.13091,0.0037014,-0.048342,0.011245,0.091611,0.07649,-0.17826,-0.11316,0.027945,-0.093219
0.59669,0.2029,0.60256,-0.19377,-0.24855,-0.78736,0.39097,-0.62796,0.79647,-0.75767,0.47885,0.024517,0.34481,0.27693,-0.06123,0.049491,0.25622,0.55072,-0.21568,-0.27608,0.33424,0.28926,0.2107,-0.67557,-0.56144
0.97236,0.9623,-0.12389,0.66275,0.25744,-0.98561,0.0032555,0.19404,0.082144,0.025805,0.47854,-0.18882,-0.093995,-0.5448,0.024797,-0.32114,-0.024208,0.050199,-0.046303,0.16641,0.11744,-0.2122,-0.31015,-0.34114,0.19478
1.0767,-0.009584,0.053997,-0.044053,-0.13677,0.074932,-0.1263,0.095604,0.30087,-0.32952,0.21793,-0.11828,-0.15755,0.04079,-0.010616,-0.064867,0.010104,0.37253,-0.010491,-0.042146,0.063197,0.18756,-0.065366,-0.22034,-0.15831
0.12235,0.11163,0.39411,0.45104,0.28,0.034165,-0.052115,-0.060957,-0.10132,-0.033253,0.1431,-0.0043488,-0.12248,0.2229,-0.013953,-0.055016,0.29248,0.0037256,-0.05496,0.038653,-0.19854,-0.22021,-0.11481,0.075457,-0.13764
0.043039,0.055101,0.24339,-0.037589,-0.058138,-0.10978,-0.19019,0.16556,0.25082,0.50487,-0.11754,-0.44491,-0.037088,0.011336,-0.12703,0.49325,-0.0058793,0.53245,0.20629,0.41422,0.013034,-0.72372,0.25685,-0.04024,-0.2981
0.40491,-0.71818,0.097204,1.8497,-0.12401,0.61348,-0.76537,0.5441,0.26287,-1.3668,-1.0973,-0.48542,0.28818,-0.84012,-1.534,1.0764,-0.39342,0.18488,1.1238,1.3428,0.19615,-0.24946,-0.97187,1.0533,0.50823
0.26033,0.14814,0.51939,0.13401,0.10344,-0.32613,0.0064739,-0.071597,0.35477,0.18067,-0.010124,0.1166,0.072155,-0.27236,0.1351,-0.28173,-0.1699,-0.025014,-0.19797,0.1067,0.086841,0.14729,-0.077748,0.043549,0.017139
0.45079,0.3224,0.17296,0.075419,0.266,-0.039784,0.31279,-0.010715,-0.32148,0.18032,-0.20991,0.10458,0.13734,-0.046517,0.30017,-0.10645,-0.22055,-0.015499,-0.1882,0.12893,0.014301,-0.1653,-0.15351,0.086497,-0.074561
0.15122,0.0097646,0.16181,0.15696,0.10399,0.12821,-0.018007,0.066843,-0.017475,0.017562,-0.043304,0.052876,0.05644,-0.016906,-0.0040561,-0.46697,-0.11233,0.25218,-0.042546,0.43553,-0.33741,-0.073142,-0.023667,0.12756,0.43487
1.1824,-0.06223,0.20026,0.86242,-0.49316,0.34188,-0.0085023,-0.71688,-0.039912,-0.36783,-0.33363,0.097038,0.21133,0.19688,-0.13233,-0.026843,-0.073343,0.10728,-0.29933,-0.16225,-0.027582,0.068337,-0.32387,0.31956,0.4803
0.54949,-0.28581,0.85242,0.062837,0.0058226,0.041259,0.054641,-0.12747,-0.27441,0.4691,0.013854,0.060351,-0.40613,-0.42639,0.40276,0.3223,0.36534,0.15773,-0.52298,-0.0022281,-0.013937,-0.15592,-0.39079,0.30434,-0.056196
0.11186,0.55703,0.071807,0.051156,0.020804,-0.14781,-0.23709,0.12175,-0.045229,0.26092,0.096335,0.14997,0.055291,0.29913,0.021708,0.013744,-0.024872,-0.065994,0.070764,-2.2174e-05,0.0047261,-0.059039,-0.061928,-0.033688,-0.23133
0.58305,0.044944,0.4654,0.019176,-0.052172,-0.06871,0.51686,-0.48097,0.43827,-0.00011052,0.08143,0.12621,-0.7782,-0.43536,-0.10905,0.049701,0.12863,-0.14397,0.50854,-0.52457,-0.0057769,-0.16443,0.10933,0.24101,0.45077
0.52826,0.27908,0.48343,-0.17441,0.14871,0.49277,0.063657,-0.33877,0.3546,0.29868,0.13795,-0.38595,-0.33077,-0.21414,-0.087058,-0.87151,0.61256,0.20682,-0.28976,-0.16644,-0.25303,0.044212,0.12482,0.31618,0.020109
0.38186,0.3275,-0.04229,0.047447,0.38966,0.086273,0.0417,0.23738,0.071511,-0.030612,-0.17072,0.23047,-0.22082,-0.26484,-0.16121,-0.2161,0.020991,-0.20348,-0.20608,-0.20723,0.12532,0.16783,0.11538,0.10059,0.37948
0.66339,-0.066497,-0.09284,0.027753,0.0744,-0.20403,-0.10403,-0.017262,0.1824,-0.21196,1.069,1.2122,-0.2347,-0.021291,-0.15755,-0.23186,0.0011422,-0.39009,-0.30168,-0.31507,-0.50993,0.36198,-0.5944,0.63734,0.22361
0.71914,0.51291,0.011424,-0.82779,-0.21174,0.59524,0.6111,0.54106,-0.36187,0.15475,-0.7015,-0.030114,0.19197,-0.18672,-0.32902,0.28682,-0.18488,0.18988,-0.030431,0.26827,-0.29432,0.23969,-0.5986,0.063307,0.37141
0.41254,0.065119,0.20824,0.39571,0.25491,0.20992,0.11461,-0.016166,-0.22454,0.0029029,-0.18401,0.067469,0.069422,0.0044647,0.02152,-0.16676,0.0015584,-0.16643,-0.14699,0.2113,0.10773,0.0074621,-0.12817,-0.18179,0.059978
0.11382,0.012052,0.69029,0.99657,-0.11459,0.1519,-0.093894,0.32326,-0.0027071,0.12542,0.30279,-0.38101,0.60971,-0.35114,-0.77078,-0.14359,0.055689,-0.77163,0.030653,-0.25244,-0.2554,0.93226,-0.036883,-0.11712,-0.05323
-0.33006,0.51297,0.28586,-0.085027,0.42463,0.43969,-0.18617,-0.13743,0.22876,0.063045,0.23157,-0.16735,-0.10624,0.56348,-0.14042,0.0059404,0.039961,0.60198,0.015612,0.26636,-0.053959,-0.49937,-0.74142,-0.12499,-0.10745
0.41429,0.054565,0.18453,0.060236,0.083105,0.072715,0.062707,0.1625,0.022013,0.027321,0.037658,-0.037755,-0.08655,0.42066,-0.10585,-0.1153,-0.29491,0.10742,-0.45588,0.25269,0.13151,-0.18465,-0.035797,0.060563,0.1622
0.49995,0.84016,-0.34283,0.28752,-1.2736,0.98084,-0.025934,-0.63549,1.5238,-0.057127,-0.51896,0.66926,-0.55808,1.7417,0.084801,6.1051e-05,0.087198,-1.1946,0.11595,-0.0052155,-0.42514,-0.74223,0.57514,0.52569,-1.1529
-0.0089696,1.085,0.30444,-0.33351,0.073355,0.073354,-0.70743,-0.35126,-0.053294,-0.42741,-0.13975,0.32392,0.32393,0.105,0.23251,1.0147,0.024079,0.31306,0.030105,-0.53579,-0.3062,0.89196,-0.69786,-0.22501,-0.0088568
0.52845,0.69232,0.52745,-0.062813,1.5767,-0.92304,0.7038,-0.31653,-0.014352,-0.62265,-0.44312,-1.3173,-1.2569,-0.76733,0.33813,0.6945,0.076237,0.33235,0.60071,-0.20017,1.1226,-0.34981,0.27501,-0.39684,0.20246
0.28596,0.070828,0.14485,-0.050147,-0.2347,0.0053475,-0.23154,-0.62407,0.3428,-0.081355,0.59612,0.11367,-0.44179,-0.15154,0.62464,0.085159,1.5941,-0.044423,0.53651,0.33777,0.2968,-0.89718,-0.19823,-1.4262,0.3466
-0.11543,0.41072,0.54314,-0.37696,0.61567,0.18057,-0.31341,0.39168,0.1158,-0.14027,0.23841,0.16964,-0.40818,-0.53259,-0.37108,0.055737,0.081851,0.10447,0.060993,0.27223,-0.044109,-0.00066496,-0.24458,0.19145,0.11492
-0.022079,-0.012293,-0.42565,-0.16468,0.57547,0.57626,0.39543,0.13615,0.87461,0.47597,-0.23825,0.04498,-0.39597,0.22508,0.46373,0.02325,-0.70181,0.66062,-0.38946,0.14793,-0.21363,-0.026584,-0.37263,-0.04179,-0.59466
0.34325,0.54896,-0.20957,0.28864,0.16165,-0.025045,-0.18613,0.00038622,-0.036165,0.26556,0.26708,-0.03957,0.51148,-0.0009363,-0.16689,-0.044713,0.0023858,0.21215,0.2361,0.076737,-0.53009,-0.11915,-0.065678,-0.0847,-0.40575
0.44835,0.12547,0.051457,0.073038,-0.076839,0.22393,0.35615,0.61371,0.045145,-0.22091,0.17522,0.017781,0.61189,-0.62154,-0.10562,-0.49219,-0.062584,-0.15743,-0.071393,-0.17652,0.1,0.33589,-0.16106,0.039928,-0.07187
0.62997,0.32218,-0.00044233,0.48373,0.12817,0.052733,-0.16635,0.025636,-0.069645,-0.063695,0.066059,0.028656,-0.021587,-0.34178,0.019064,0.026276,0.10369,-0.14933,0.095983,0.01446,0.094429,-0.0070263,0.075106,-0.20168,-0.14461
0.43701,0.29871,0.40468,-0.052052,0.10477,-0.56066,-0.19285,-0.096461,0.67277,0.003878,-0.4455,0.43874,-0.46971,0.23635,0.48097,0.28026,0.21824,-0.11345,-0.20274,0.2149,-0.22384,-0.19097,-0.10987,-0.29103,0.15785
1.0842,-0.20385,-0.090983,0.29271,0.48869,0.17734,-0.3693,-0.71455,0.47671,0.015864,0.073399,-0.87793,-0.60296,-0.39187,-0.010271,0.27242,0.81383,0.55412,0.277,0.94427,0.042188,-0.58329,-0.010175,-0.29246,-0.36511
0.34035,-0.041135,1.2398,0.1146,-0.13098,-0.088868,-0.23725,-0.033597,0.07876,-0.066285,0.18201,0.0011749,0.71663,0.061411,-0.22801,0.81424,0.3888,-0.54026,-0.35934,-0.20252,-0.40406,0.64633,-0.22235,-0.47201,-0.55742
0.10923,0.12926,0.5655,-0.53502,1.1555,-0.030604,-0.552,0.77059,0.84775,0.65999,0.96059,-0.19505,-0.30949,-0.31195,-0.29859,-0.33101,0.096762,-0.5931,0.90188,-0.37469,-1.357,-0.32484,-0.28322,0.081957,0.21757
0.50798,0.72269,0.46181,0.60161,-0.38427,-0.33124,0.29663,0.094602,-0.22895,0.14375,0.033944,-0.19702,-0.1073,-0.55755,-0.080817,0.028973,0.19954,-0.29701,0.12856,-0.51133,0.00012981,-0.034521,-0.043472,0.41997,0.13329
-0.10014,0.26153,0.33657,-0.56896,0.30586,0.01989,-0.13684,0.99177,0.37697,0.24881,-0.32188,-0.089884,-0.46416,0.28784,0.085499,0.33311,0.37456,0.34094,0.019524,-0.43873,-0.72344,0.0037261,0.14546,-0.67291,0.38487
0.62776,-0.026075,0.16474,-0.035336,0.068432,-0.066967,0.079683,0.0041248,0.031122,0.15882,0.002976,-0.069198,0.23317,-0.12184,0.067214,-0.43998,0.059459,-0.041733,-0.0032487,0.0011576,0.0075018,0.046037,-0.032697,0.065343,0.21954
0.62858,0.40585,-0.07496,-0.059951,-0.10672,0.084296,0.093784,0.26479,-0.1728,0.18202,-0.13716,0.27059,-0.01737,-0.028229,-0.16943,-0.0069798,-0.0173,-0.091687,-0.33974,0.18251,0.21578,-0.065243,-0.20376,0.2238,-0.060649
0.22813,0.30606,-0.02524,0.4556,0.089249,0.28907,0.084715,0.07993,-0.065115,0.015157,-0.25213,-0.16807,-0.059715,-0.18091,0.12544,0.25462,0.06042,-0.20057,0.19468,-0.13469,-0.10562,-0.00037864,-0.032359,-0.052508,0.094227
0.86174,0.079876,-0.15305,-0.11722,0.18383,0.056776,0.29478,-0.11085,-0.3111,0.025364,0.25968,-0.17752,0.07064,-0.13256,-0.063903,0.12722,-0.12294,-0.038283,-0.19935,-0.062421,0.19365,-0.16464,0.29546,0.021976,0.18283
0.73333,0.092499,0.057892,0.048218,0.15749,-0.024816,0.18982,0.055058,-0.13287,0.11088,0.10399,-0.065624,-0.17159,0.003435,-0.25628,-0.052954,-0.0095739,0.035441,0.087463,-0.017909,-0.067695,0.0072858,0.029263,0.068736,0.018504
0.80732,0.40602,-0.37886,0.065702,-0.02597,0.37529,0.26252,-0.2482,-0.050211,-0.17034,0.0063597,0.39876,-0.078531,0.23641,-0.62179,-0.13076,-0.25773,0.51862,-0.56085,0.40214,0.044348,-0.36504,0.077705,0.21911,0.067967
1.0822,0.22077,0.39129,-0.082294,0.0019965,-0.76288,-0.72852,0.035774,-0.0059071,0.057998,0.423,0.041427,-0.90912,0.15414,0.078069,0.58603,0.54438,0.60175,0.18431,0.33794,0.16481,-0.91555,0.32766,-0.22804,-0.60125
0.88639,0.38098,-0.36666,-0.25739,0.13877,0.054291,0.28583,-0.031531,0.23737,-0.078153,0.062999,-0.25769,0.22589,0.28995,-0.04363,-0.025051,-0.025069,-0.13716,0.070832,0.16516,-0.010328,0.038861,-0.032556,-0.35454,-0.21758
0.54348,-0.26024,0.02323,-0.072688,0.56995,0.32341,-0.058693,0.14973,-0.10491,0.23553,0.70426,-0.11275,-0.31353,-0.11638,0.017278,-0.16975,0.020199,-0.14125,-0.51099,-0.32476,0.55863,0.51856,-0.2639,-0.18013,-0.034278
-0.12315,0.56421,0.45077,0.030899,0.27963,0.043249,0.062703,0.13375,-0.18239,-0.5346,0.035641,-0.25579,0.10999,0.3759,-0.39819,0.43322,-0.013044,0.10558,-0.081835,-0.27823,-0.14661,-0.31237,0.23658,0.2856,0.17849
0.40805,0.48812,0.014386,0.20198,-0.3907,0.0099315,0.45461,0.22961,-0.21186,-0.27448,-0.017749,0.062931,0.094857,0.12253,0.2209,0.059399,-0.1653,-0.051266,0.39377,-0.046001,-0.19169,-0.078606,0.089235,-0.16582,-0.25684
0.94968,0.33774,-0.39484,-0.91946,0.1712,-0.13586,-0.13589,0.72004,0.054291,0.18021,0.10329,0.11725,0.56123,-0.57591,-0.57591,0.19782,0.19923,-0.035893,0.39559,-0.10707,-0.37005,0.027214,0.33309,0.049842,-0.14684
0.27039,0.37435,0.10336,0.19604,0.13938,-0.0014599,-0.18468,-0.15339,0.044614,0.0043956,-0.011738,0.19841,0.18571,-0.068866,0.02409,-0.0038238,0.0010811,-0.088253,0.060358,-0.072802,0.039238,0.0030132,0.052724,0.0005886,-0.11274
0.33692,0.4337,0.49595,0.22108,0.0076019,-0.096286,0.48923,-0.13644,0.18373,-0.42537,-0.19429,0.1398,0.14074,-0.77287,-0.28055,0.031725,-0.093814,0.054391,-0.011479,-0.13044,-0.083325,0.58424,0.13515,-0.084214,0.054845
0.53064,0.34868,0.41024,-0.13027,-0.13992,-0.00093272,-0.07517,0.46683,-0.40663,0.14702,0.20734,-0.27493,0.18286,-0.16463,0.26656,-0.046043,0.16384,-0.84833,0.10856,-0.27856,0.43866,0.18039,-0.36874,-0.13503,0.41757
-0.090557,0.46263,0.20134,0.35983,0.30609,0.00029638,0.013276,-0.13732,0.21159,0.48133,0.43755,0.029267,0.17824,-0.10102,-0.37525,-0.11853,-0.10759,-0.4644,-0.063957,0.32791,-0.010352,0.1848,-0.0010546,-0.30302,-0.4211
0.34231,-0.0073823,0.31464,0.4527,-0.090579,-0.10213,0.30621,-0.0017767,0.015105,0.10129,0.2594,-0.005344,-0.18529,-0.17913,0.029678,0.076988,-0.16374,-0.055622,0.0094083,0.0050279,-0.0575,-0.01071,-0.0020736,4.9237e-05,-0.051529
0.56654,0.29452,0.10312,0.21189,-0.014777,0.23457,-0.19635,-0.013359,-0.0056841,0.32834,-0.19729,0.32314,-0.21696,-0.10931,-0.018231,0.095334,0.011824,-0.10371,0.22229,-0.12401,0.11986,-0.41202,-0.047274,-0.015548,-0.036896
0.83832,-0.048739,0.33394,0.0088477,-0.077826,0.14646,0.36424,-0.20003,-0.0013699,-0.041083,-0.10683,0.066553,-0.040717,-0.05118,0.22829,-0.44179,-0.078399,0.0090298,-0.16366,-0.19368,0.13628,0.18709,0.14654,0.047648,-0.067928
-0.092518,0.23981,-0.06853,0.47954,0.19151,0.0022672,0.031478,-0.081693,0.34612,0.21123,0.19465,0.15332,0.098326,-0.031782,-0.046234,-0.15189,-0.34441,-0.034877,-0.27074,-0.075251,0.0049158,-0.049636,0.10615,0.29861,-0.11037
0.22595,0.48604,-0.099027,0.21687,0.02132,0.12863,0.0049694,0.21736,0.20537,-0.22803,-0.082437,-0.096834,-0.19121,-0.15149,0.19487,0.14332,0.17379,-0.099141,0.10195,-0.14457,0.033926,0.13013,0.042451,-0.15225,-0.081932
0.6832,0.15912,-0.070825,-0.053616,0.024739,0.051579,0.2064,-0.098879,0.11233,0.084381,0.09723,0.037779,0.0089125,0.10164,-0.13781,0.0017956,-0.072936,0.070493,-0.085757,0.047075,0.023072,0.024434,-0.086167,0.032769,-0.16097
0.72105,-0.25954,0.87854,0.42129,-0.024555,0.021867,-0.17967,0.045455,-0.69661,0.1945,0.18714,-0.29653,0.87236,0.13855,-0.46332,0.039754,-0.49906,0.043552,-0.13707,-0.043842,-0.055631,0.14926,-0.11108,0.056632,-0.003038
-0.24665,0.30595,0.22986,0.067593,-0.14487,0.34659,0.14948,0.28187,-0.080974,-0.012455,0.31238,-0.031088,-0.42437,0.21434,0.21685,-0.18819,0.31975,0.07117,0.24531,0.19225,-0.089357,-0.28611,-0.13853,0.23152,-0.54233
0.18321,0.35945,0.34429,-0.12524,0.040857,0.07049,0.19465,0.1136,-0.0039426,0.00083712,0.15424,-0.039131,0.086212,0.039797,-0.17349,0.26521,-0.0094217,0.12143,-0.0016156,0.0059862,0.20931,-0.25599,-0.088822,-0.31096,-0.18096
0.27819,0.96649,-0.07909,0.039901,0.062744,0.0083663,0.068595,0.31149,0.26399,-0.5881,0.084046,0.042089,-0.2597,-0.6814,0.17904,0.45229,0.31107,0.35658,-0.0061571,-0.20691,0.055751,0.24691,-0.007664,-0.58169,-0.31685
0.045262,0.80354,0.11047,0.044627,0.67895,0.29929,-0.2007,0.05059,0.16191,-0.012867,-0.15567,-0.11632,-0.23797,0.24463,-0.36219,-0.034437,0.33122,-0.33117,-0.28457,-0.56624,-0.0012331,-0.31699,0.20122,0.75311,-0.10445
0.4479,0.034485,0.33946,-0.18735,0.33969,-0.2319,0.3742,-0.05941,0.17839,0.39749,0.083564,0.1312,0.039688,0.28414,0.30813,-0.50223,0.28083,0.28368,-0.0016763,0.0019402,-0.40417,-0.27373,-0.20857,-0.24783,-0.40791
1.0698,0.065032,0.26196,0.098243,-0.15678,-0.22993,0.51135,-0.13435,-0.1668,0.16883,-0.16141,0.25587,0.10736,-0.16133,-0.043495,-0.19738,-0.3427,-0.2465,0.59221,-0.15516,-0.69156,0.22482,0.010123,0.23446,0.08733
1.2546,-0.21752,-0.22725,0.01265,-0.023151,-0.19525,0.20939,0.327,-0.017749,-0.3815,0.31572,-0.1179,0.5722,-0.26968,0.1444,-0.0032579,-0.22826,0.34669,-0.42612,0.074286,0.10689,0.019534,0.31864,-0.085598,-0.50874
0.0039238,0.092309,-0.01006,0.19328,-0.15837,0.17816,0.1071,0.32162,0.23716,0.28673,0.50799,0.50459,0.47533,-0.025981,-0.25291,0.11384,-0.31726,-0.13683,-0.22649,-0.10785,0.06946,-0.58121,-0.037032,0.08092,-0.31842
0.17968,1.0175,0.0025768,0.33203,-0.0092096,-0.21577,0.36234,0.27442,-0.23153,0.13205,-0.10406,-0.093693,-0.75915,-0.10374,0.097737,-0.013555,0.47929,-0.086436,0.33043,-0.0049493,0.14655,-0.31472,-0.20135,0.14899,-0.36544
1.2073,-0.049891,0.37552,0.47309,-0.26296,0.61178,-0.1288,0.38378,-1.1473,-0.011012,0.20727,0.20041,-0.17291,-0.053523,0.54539,0.32697,-0.28027,-0.56548,0.5522,0.28466,0.1811,-1.0442,0.19607,-0.34311,-0.48606
0.52488,-0.044606,0.2939,0.18515,-0.17981,0.27024,0.1857,0.3901,-0.11138,-0.043232,-0.098299,0.13344,0.022656,-0.045644,-0.077263,0.17545,0.092961,-0.12235,-0.26608,0.054424,-0.080319,-0.11039,-0.07517,-0.073086,-0.0012974
0.96557,-0.010828,-0.40707,0.66577,0.59468,-0.22032,0.56513,0.76557,-0.54888,-0.2287,-0.49754,0.29978,-0.266,0.22717,-0.27128,-0.0012517,0.17599,-0.00060594,-0.64392,0.54561,0.016011,0.072628,-0.016593,-0.63211,-0.1488
0.52272,0.27361,0.12196,0.12831,0.6131,0.068708,0.17917,-0.16309,0.50638,-0.12451,-0.11211,0.18874,-0.10766,0.00012849,0.037588,-0.35693,-0.068183,-0.034843,-0.29046,-0.068324,-0.077626,0.015948,-0.089752,-0.10152,-0.061366
0.20506,0.59344,1.1642,0.60057,0.27607,-1.6632,-0.33462,1.1459,-0.44536,-1.1139,0.00058678,0.56458,-0.00031167,0.18847,0.49673,-0.083466,0.35618,-0.36242,-0.62466,0.29849,0.78432,-0.44768,-0.62187,0.52774,-0.50492
-0.071894,0.27378,0.14523,0.66588,0.31258,0.1244,-0.023661,0.44806,-0.21189,0.45218,0.29604,0.5216,-0.018733,0.15322,-0.143,-0.097822,-0.30688,-0.48044,-0.3029,-0.056718,0.27598,-0.025946,-0.38422,-0.24211,-0.30273
0.16797,0.26332,0.023051,0.1192,0.3237,0.055509,0.085195,0.18391,-0.17072,0.20668,0.095451,0.072388,-0.09365,-0.22768,0.038131,-0.023782,0.19663,-0.16507,-0.12784,-0.080385,0.06515,-0.029887,-0.018821,-0.022026,0.063586
0.27464,0.11381,0.44736,0.048954,0.027263,-0.1155,0.035095,0.32421,0.17109,0.08815,0.069813,0.088223,-0.02193,0.05332,0.066173,-0.1208,-0.019025,-0.0084404,-0.19309,0.002836,-0.16091,0.152,-0.21519,-0.047984,-0.06006
0.30516,-0.29332,0.59018,0.18115,0.69553,0.45631,-0.029956,-0.54062,0.092817,-0.0037334,0.051779,-0.027838,0.36447,-0.058697,0.1032,-0.61756,-0.00046788,-0.0084166,-0.37875,0.089119,-0.50611,0.063991,0.12572,0.34612,-7.9462e-05
0.48707,0.19294,0.35488,0.038713,-0.013346,-0.071507,0.052273,0.35754,-0.26875,-0.15433,-0.13981,-0.053815,0.11346,-0.092608,-0.035367,-0.1802,0.076297,-0.023225,0.17662,0.50283,-0.18247,-0.0458,0.096143,-0.28294,0.095398
0.57844,-0.4868,-0.13412,0.23701,-0.21545,0.36159,0.36314,0.27302,0.26703,0.016869,-0.13189,-0.33609,0.17128,0.22458,-0.28691,-0.031887,0.27791,-0.14954,-0.13735,0.22329,-0.045958,0.18089,-0.17185,0.072678,-0.11987
0.56323,0.25415,-0.4778,-0.62374,-0.32175,0.23502,-0.0021352,0.72201,0.7001,-0.1827,0.078884,1.2759,0.069219,-1.2987,-0.7106,0.60338,1.5142,-1.3347,0.55406,0.48611,-0.6791,-0.56023,0.57172,-0.02496,-0.41163
0.64717,0.24907,0.17965,0.12031,0.16145,-0.33488,-0.056798,-0.0044508,-0.16672,-0.13863,-0.097285,0.1117,-0.25543,0.33711,0.2316,0.015418,-0.1339,0.10907,-0.0017485,-0.14541,-0.022156,0.28441,0.10758,0.013579,-0.21071
0.84624,6.3453e-05,-0.0080287,0.22981,-0.0049486,0.016166,0.26002,0.1227,-0.24858,0.06216,-0.29958,0.028999,-0.087019,0.042721,0.14961,0.11058,0.43003,-0.027709,-0.23831,-0.002597,-0.072177,-0.17341,0.028526,-0.01728,-0.14797
0.2368,0.81766,0.43026,0.15179,-0.0032873,-0.21798,-0.15326,-0.0048055,-0.098052,-0.21386,0.15135,-0.14101,0.0041279,-0.12338,-0.23313,0.24126,0.098079,0.1548,-0.079201,-0.20954,-0.00018129,-0.0058549,0.002518,0.024695,0.17021
0.75507,0.57061,-0.19518,0.64051,0.10759,0.33304,-0.09899,-0.59321,0.32092,0.34691,-0.26532,0.035831,0.21948,-0.49323,1.0731,0.14615,-0.62732,-1.1351,-0.24692,-0.28707,0.012321,0.17415,-0.33109,0.41757,0.12016
0.41459,-1.2278,-0.34128,1.5707,0.15151,-0.20417,0.62816,-0.59406,1.7883,0.56773,0.88471,0.66811,-1.1509,0.15463,0.077568,-0.89473,-0.55166,0.22436,-0.25858,0.56605,0.93604,-1.09,0.735,-0.51164,-1.5426
0.21079,0.51419,0.6166,-0.32052,0.2704,-0.52637,-0.24977,1.6549,0.60001,-1.1462,-0.54094,-0.58052,0.5213,0.48303,-0.08655,0.80853,-0.13443,-0.75357,-0.28175,-0.097885,0.046087,-0.18811,0.15339,0.1551,-0.12776
0.40218,0.21299,0.41669,0.065918,0.10973,-0.11377,-0.18661,0.36385,0.15948,-0.039824,0.16963,-0.18138,0.20173,-0.19915,-0.31449,0.01101,0.11017,-0.46768,0.035772,0.1201,0.17954,-0.05674,0.16371,-0.081522,-0.081332
0.74009,0.43306,-0.0085644,0.4303,0.11241,-0.12947,0.42554,-0.65531,-0.183,0.32794,-0.21427,0.1724,-0.078949,-0.013994,-0.38968,0.012287,0.12071,-0.23338,-0.025569,-0.31913,-0.0031486,0.091108,0.10171,0.2178,0.069108
0.32457,0.35815,0.6739,-0.15618,-0.087854,-0.028971,0.025532,-0.056175,0.36261,-0.10177,-0.021077,0.13625,-0.41275,-0.32718,-0.061813,0.065643,0.22571,-0.11135,0.29408,-0.017427,-0.78825,-0.14234,0.60075,0.26922,-0.023263
0.18151,0.055206,0.47643,0.10996,0.050551,0.18478,0.078043,-0.025986,-0.065886,-0.20991,0.054528,0.39815,0.046242,0.28647,-0.32609,0.45056,-0.32486,0.24914,-0.43544,-0.28274,-0.073069,-0.084514,-0.054783,0.10312,0.15858
0.16044,0.090357,0.041977,0.16562,-0.44181,0.14912,0.92354,-0.31491,0.27087,-0.005918,0.99098,0.91266,-0.68931,-0.31117,1.6177,0.15429,0.16694,-0.56379,0.02683,-0.81396,0.31887,-0.066991,0.047255,0.35245,-2.182
0.18466,0.24264,0.18097,0.44225,0.02767,-0.26375,0.32248,0.0043629,0.1937,0.20056,-0.27556,-0.53694,0.18424,0.11713,-0.27214,-0.14139,-0.064015,0.045479,0.53352,0.3492,-0.27174,-0.039775,-0.12639,-0.054118,0.01693
0.44232,1.0629,-0.18749,0.075312,-0.29965,0.89475,0.085343,0.10657,-0.88771,-0.52768,0.42991,-0.10141,0.31788,0.068241,0.49676,-0.21456,0.53506,-0.41508,0.29936,-0.22968,0.52285,-0.50159,-0.56422,-0.079509,-0.3287
0.39949,0.18492,-0.033989,0.03203,-0.11416,0.20081,0.078108,-0.21323,0.35433,-0.010017,0.0028096,0.45288,0.18672,-0.19106,-0.14676,-0.20126,0.36256,0.20193,0.15219,-0.18051,-0.080063,-0.24977,-0.25231,0.10422,-0.039871
0.43491,0.27714,0.15533,-0.0045434,-0.49709,0.25512,-0.2221,-0.12866,1.0935,0.1332,-0.47201,-0.25145,0.92828,0.25251,-0.23053,-0.52139,0.5753,-0.54472,0.11212,0.0088892,0.60994,-1.4925,0.40177,-0.425,0.55198
0.6917,-0.00096149,-0.0058212,0.0036847,0.2903,-0.28378,0.085566,0.063887,0.017421,0.29399,-0.053142,0.062357,0.30881,-0.16009,-0.020624,0.17374,0.10877,0.039778,-0.027854,-0.074741,-0.107,-0.073289,0.095496,0.00027083,-0.42848
0.31556,0.26573,-5.3838e-05,-0.0091239,-0.078705,0.21979,-0.011134,0.19678,-0.13082,-0.040505,0.0038485,-0.10272,0.28313,-0.11229,0.015034,0.26885,-1.0493e-05,0.11173,0.090272,-0.20959,-0.059762,0.071745,0.10368,-0.076309,-0.11514
-0.20407,0.0060567,0.060274,0.6106,0.48056,0.027725,-0.094267,-0.081702,0.27419,-0.26455,-0.021246,0.55069,0.59219,-0.60459,0.0017941,-0.064485,-0.11909,-0.1437,0.081308,-0.38918,-0.33535,0.1538,-0.22069,0.49985,0.20387
0.16247,0.16247,0.16108,0.16109,0.025456,0.17342,0.10923,-0.081472,-0.10739,-0.037069,0.13808,0.048015,0.0063823,0.1048,0.27723,0.18024,0.15127,0.014663,-0.2362,-0.064231,-0.089865,-0.25332,-0.13467,0.029961,0.098364
0.38729,0.31335,0.47277,-0.48734,-0.010707,-0.18149,0.85438,0.10703,0.47527,-0.072107,-0.39009,0.19496,0.2584,-0.16234,0.22694,0.21085,-0.28111,-0.243,0.21827,-0.36876,-0.003695,-0.7844,-0.11626,0.61905,-0.23727
0.16007,0.29458,0.14706,0.29814,0.034062,0.13116,0.062267,-0.0050308,-0.1594,0.14128,0.25058,0.18708,-0.14237,0.087897,-0.1545,0.31323,-0.13325,-0.25638,-0.16901,-0.066856,0.0088992,0.0046138,0.11259,-0.3349,0.18818
1.2628,1.721,-0.31666,-0.052305,-0.1869,0.28509,-1.1345,0.070601,-0.30635,0.57672,0.61934,-0.082043,-0.59992,-0.38658,-0.0050942,0.075213,0.16776,-1.7534,-0.046512,0.33698,0.74012,-0.098821,0.27015,-0.14656,-0.01024
0.24548,0.24483,0.16948,0.17277,0.065818,0.16809,-0.26757,0.28475,0.16953,0.10048,-0.16426,-0.14523,-0.05445,-0.13555,-0.077435,-0.060893,0.093012,-0.08383,-0.016257,0.2278,0.06845,0.14139,0.0050511,-0.029062,-0.12239
0.18072,0.38442,0.2472,0.11473,-0.075765,-0.028693,0.013778,-0.18594,0.27099,0.079274,-0.030552,0.12734,0.083381,0.0031788,0.022441,0.032523,-0.11215,0.23345,0.021378,-0.089348,-0.036138,-0.047009,-0.22592,-0.040662,0.057367
0.26249,0.25422,-0.055363,-0.041923,-0.14315,0.18731,-0.030307,-0.0029775,0.24189,-0.13795,0.01858,0.20367,0.25114,0.22684,-0.0060536,-0.064437,-0.054523,-0.066825,-0.28905,-0.043357,0.1733,0.4092,-0.083856,0.070061,-0.27892
0.65495,0.047133,0.097874,0.37546,-0.39111,-0.025204,0.15853,0.0074702,0.14028,0.036816,-0.061832,-0.12402,0.22999,-0.13051,-0.32875,0.18206,0.27168,0.064256,0.013958,0.068932,-0.12327,-0.053484,-0.046841,0.003045,-0.067405
0.083282,0.58805,-0.08781,0.67847,0.53026,0.87452,0.27421,-0.066968,0.14857,-1.0655,0.088749,-0.39538,0.63643,0.66875,-0.074661,-0.26062,-0.38821,-0.23749,-0.17045,0.27189,-0.38461,-0.092773,-0.11112,-0.27877,-0.22883
0.45075,0.20215,0.25952,0.022653,0.21678,-0.044315,0.018797,-0.10241,0.087505,-0.020849,-0.26914,0.071011,0.15149,-0.093047,-0.23826,0.035214,0.18376,-0.15495,0.033919,0.027373,0.047923,0.029003,0.13673,-0.00047723,-0.05112
0.85791,0.30714,0.028957,0.25597,-0.35138,-0.19309,-0.074725,-0.13319,-0.074324,0.049386,0.17814,0.20784,0.17456,-0.23792,0.066283,-0.25305,0.18096,-0.051115,-0.0070473,0.025005,0.097129,0.28655,-0.20591,0.0092087,-0.14329
0.7783,0.49457,0.090255,0.07929,-0.40398,-0.30131,0.49756,-0.21074,-0.11137,-0.30541,0.35113,0.36012,-0.35065,-0.0087433,0.097005,-0.10436,0.011246,-0.091975,-0.47585,0.35053,-0.078223,-0.56639,0.21203,0.41603,0.27094
0.37425,0.31502,0.24616,0.039803,-0.086549,0.13674,0.094884,0.02269,-0.48738,0.21871,0.10838,-0.19345,-0.059806,-0.03455,0.34662,0.12582,0.30108,-0.31902,-0.18231,-0.12989,0.18322,0.25384,-0.21598,0.066209,-0.12449
0.6029,0.050901,0.11943,0.14633,0.048121,0.040527,0.31384,-0.14355,0.0053127,-0.014533,-0.13418,-0.12963,-0.059509,0.051987,0.2184,-0.12437,-0.15223,-0.070246,-0.072948,0.24835,-0.0034793,0.12791,-0.044297,-0.051487,0.026454
0.43916,0.1206,-0.20982,0.0099048,0.54813,0.16869,0.10007,0.36938,-0.18264,-0.059735,0.35059,-0.34965,-0.25405,0.25691,-0.26208,0.21527,-0.13688,-0.17445,-0.34962,0.24609,0.22386,0.39232,0.24896,-0.42899,-0.282
0.35713,0.17174,0.19973,-0.019766,0.06004,0.050448,-0.12386,0.25219,0.19415,-0.073509,0.11588,0.0714,0.045312,-0.24377,0.1101,-0.091697,-0.27236,-0.033759,0.13534,0.088868,-0.10574,0.10712,0.073283,-0.07267,0.004394
0.64103,0.5206,0.16264,0.82251,-0.22363,-0.13368,-0.1626,-0.027555,0.19404,-0.068876,0.099278,-0.24226,0.28801,0.022933,0.086311,0.059524,-0.20447,-0.12679,-0.2911,-0.32986,-0.20493,0.10847,0.31379,-0.37952,0.076156
0.28852,0.20514,0.17461,0.12338,0.083647,0.27191,0.036794,-0.0057983,-0.00015186,0.32636,-0.026927,-0.22034,-0.079882,0.10337,-0.037084,-0.069603,-0.028002,0.059744,0.18923,-0.078374,0.026427,-0.23681,-0.1682,0.016436,0.045608
0.090739,0.036774,-0.34856,0.65985,0.41932,0.14439,0.025855,0.16422,0.037986,0.015885,-0.21238,0.069873,0.1622,-0.25246,0.18367,0.27524,0.53296,-0.47627,-0.2766,0.22618,-0.10879,-0.1578,0.010234,0.032451,-0.25497
0.33694,0.11616,-0.0013868,0.16928,0.17095,0.56518,0.41052,-0.34203,-0.013545,-0.24774,-0.043516,-0.38033,-0.18112,0.073562,-0.31338,-0.10188,0.1885,0.30368,0.065098,0.23437,0.33406,-0.56113,0.098368,0.12923,-0.0098298
0.37908,0.16451,0.21386,0.27575,0.10682,0.20368,-0.0097077,0.054452,-0.10696,-0.1557,0.032386,0.059971,-0.033085,0.13853,0.13616,-0.051087,0.12514,-0.18266,-0.11373,0.082249,-0.091047,-0.08003,-0.2486,0.058584,0.04143
0.21521,0.18718,0.13512,0.54257,-0.0012318,0.082832,0.050572,-0.013828,0.0045601,-0.31338,0.36027,0.10527,0.40642,-0.040347,-0.24573,-0.086297,-0.055051,-0.1913,0.3898,-0.14609,-0.054067,-0.14641,-0.3357,-0.18803,0.33768
0.83006,0.33621,0.2645,0.067609,0.34722,-0.096046,0.019806,-0.43045,-0.060634,-0.19382,0.30718,0.509,-0.61406,0.40263,0.018441,-0.46702,-0.63232,0.21232,0.36522,-0.12898,0.2809,-0.19341,-0.21969,-0.20376,0.2791
0.86116,0.32377,-0.060975,0.38472,0.011451,-0.23865,0.10193,0.058974,-0.52811,-0.15566,0.46859,0.010958,0.019511,-0.01656,-0.064758,-0.044043,-0.089943,-0.045975,0.10403,-0.1348,-0.052865,-0.2392,-0.062208,0.17454,0.21415
1.0564,0.23601,-0.23841,-1.7979,0.1966,0.59794,0.26421,-0.026848,0.46108,0.12454,-0.52952,-0.40151,-0.26504,0.070022,0.0681,-0.40079,-0.57036,0.63847,0.069136,0.64246,0.45564,0.13667,-0.16443,-0.027869,0.40539
0.5854,0.31208,0.19998,0.46279,0.059587,-0.075035,0.017448,-0.078425,-0.096423,0.23138,-0.082115,-0.029533,-0.19698,0.12326,-0.12901,0.15316,-0.47973,-0.15609,0.11136,-0.11735,0.3145,-0.16398,0.016678,0.024461,-0.0074058
0.22647,0.18588,0.2021,0.39591,0.01293,0.044728,0.23072,0.09634,0.040222,-0.14157,0.05151,-0.093893,-0.069587,-0.031176,-0.0047978,0.011957,0.025223,-0.26047,0.11291,0.12258,-0.0072012,-0.2079,0.014686,-0.014361,0.056792
0.12047,0.18785,-0.0049132,0.35852,0.33081,-0.18557,0.31459,0.064705,0.15344,-0.18035,0.093248,-0.1568,-0.11417,0.10543,0.13632,0.090363,0.18742,-0.0754,0.18608,0.18309,-0.056804,-0.27431,-0.20881,-0.1294,-0.1258
0.45521,0.23339,0.50743,0.040111,0.1717,-0.59034,0.25886,-0.12431,0.021673,-0.064244,-0.1512,0.080924,0.13055,0.12226,0.081989,-0.20722,0.32705,-0.24198,-0.16032,-0.17157,0.21309,-0.021617,0.22819,0.24268,-0.38231
-0.21181,0.93391,0.30605,-0.1147,-0.15898,0.53812,-0.058609,-0.14621,0.69213,0.18368,0.026179,0.057037,-0.26554,-0.24171,0.656,0.65336,-1.0148,-0.056541,-0.28628,-0.62673,0.0133,-0.43107,0.50132,-0.075899,0.12778
0.1117,0.51878,0.35784,-0.034945,0.057597,0.15851,0.11158,-0.025984,-0.012127,-0.01953,0.039677,0.10036,0.0094207,-0.32472,0.097853,-0.1051,-0.016307,-0.11494,0.20331,0.065812,-0.012495,0.060326,-0.13539,-0.10758,0.016351
-1.0448,-0.019536,-1.157,0.15223,1.5934,-0.092817,0.69908,1.0219,-0.19228,0.93623,0.55443,1.1825,-1.1633,0.44626,0.26958,-0.23573,0.83494,0.18292,-1.3916,-0.72375,-2.1446,-0.68414,0.30967,1.6293,0.036995
0.38593,0.56915,0.073996,0.37259,0.096242,-0.15508,0.28544,0.58846,0.032372,0.20874,-0.25042,0.0187,0.32948,0.047808,-0.083721,-0.23982,-0.39369,-0.041859,-0.52984,-0.81663,-0.27502,-0.056588,0.26577,0.18952,0.37848
0.4084,0.45855,0.29771,-0.11885,0.20414,0.35668,0.20591,0.34276,-0.074707,0.1205,-0.58693,-0.45301,-0.14844,0.014965,-0.070563,0.22613,-0.069381,0.036628,-0.15918,-0.2072,0.10555,-0.21354,0.0089381,-0.024421,0.33936
0.38476,0.43934,-0.23673,0.23098,0.045718,-0.66249,-0.28002,0.4504,-0.49343,0.091618,0.45538,0.24327,0.5353,-0.78082,0.15864,0.64013,0.0018836,-0.50428,0.35961,-0.20863,0.21294,0.042247,0.16868,0.060871,-0.35536
0.49499,0.48856,0.2022,-0.36414,0.1367,0.28714,-0.20757,0.13305,-0.16523,0.56584,0.2248,-0.43251,-0.7312,0.27105,-0.25195,0.48927,-0.4196,0.40926,0.25032,-0.077627,-0.0565,0.014444,-0.11009,0.33545,-0.48666
0.80788,0.19352,0.012002,0.14431,0.0038776,-0.082541,-0.14487,-0.077819,0.14545,0.031334,0.02776,0.070695,0.0047262,0.19869,0.031969,0.051508,0.0049584,-0.01293,-0.096045,0.030164,-0.036188,-0.13872,-0.16847,-0.025916,0.02465
-0.12661,0.11411,0.38962,-0.014631,0.29973,0.46432,0.15233,0.14016,0.039421,-0.1393,0.38034,0.1401,0.057433,0.0022453,-0.025431,0.50911,-0.04047,0.029438,-0.74877,0.005673,-0.25104,0.030945,-0.1023,-0.11062,-0.1958
0.64755,0.16816,0.18037,-0.0046415,-0.032414,0.13986,-0.053906,-0.019832,-0.050435,0.24872,0.018482,-0.065766,0.17096,0.15473,0.089585,0.012302,0.012419,-0.10057,-0.18151,-0.26716,0.032083,0.050655,0.062336,-0.27049,0.058526
0.14779,0.36566,0.484,-0.27286,-0.081012,-0.21464,1.0805,-0.7456,0.5899,0.10568,0.29463,0.25131,-0.093143,-0.14583,0.13645,0.41367,-0.33191,-0.11897,0.29325,-0.44819,0.12633,-0.81667,0.45134,-0.42561,-0.046077
1.602,0.38288,1.2928,0.13067,0.020981,-0.40153,-1.33,-0.77999,0.30083,-0.73271,0.056027,-0.42542,-0.80739,1.175,0.14057,0.65437,0.47757,-0.46084,-0.25496,0.016693,-0.0062981,-0.019335,0.053948,0.060266,-0.14616
0.57795,0.23442,-0.18802,0.28099,0.35483,0.48198,-0.019737,0.38506,-0.3084,-0.084122,-0.16429,-0.16429,-0.023456,0.25669,-0.15513,-0.22672,-0.31327,-0.21141,0.1241,0.1241,0.19182,-0.027334,0.21999,-0.19313,-0.15262
-0.060632,0.088251,0.56942,0.68301,0.01665,0.014674,0.41833,-0.12816,-0.26905,0.077203,0.077924,0.023416,0.21805,-0.21193,-0.026147,-0.047863,0.086981,-0.19467,0.087249,-0.05011,-0.18817,0.34149,-0.29016,0.036069,-0.27181
0.15568,1.651,0.15238,-0.6632,0.57117,-0.49583,0.42971,0.20138,0.055781,0.72111,-1.2863,0.52761,0.08887,-0.18909,0.67287,0.79875,0.2025,-0.19824,0.079768,-0.72443,0.23203,-0.28294,0.17589,-1.8258,-0.050571
1.1246,0.31119,0.32772,-0.020037,-0.009517,-0.19723,0.49107,-0.55059,0.57365,-0.12934,0.44819,-0.63319,0.045554,-0.058484,-0.35341,0.31682,0.38561,-0.40625,0.16041,0.19507,-0.91304,0.28372,-0.37329,0.14552,-0.16475
0.40207,0.21274,-0.056948,-0.022685,0.33734,-0.096271,0.039325,0.077346,0.31471,0.014308,0.053003,0.13889,0.22933,-0.25343,-0.165,0.0229,-0.64449,0.092284,-0.16311,-0.0079362,0.0039428,-0.0069597,0.2571,0.088729,0.13281
0.93826,0.054894,-0.0079815,0.04597,-0.06555,-0.38011,0.16238,0.21306,0.090233,0.028394,0.021667,0.18511,-0.068844,0.085338,-0.0089261,0.12031,-0.32495,0.028186,0.21444,-0.23352,0.2056,-0.16625,0.21335,-0.39039,0.039335
1.3931,0.47451,-0.63716,-0.34842,0.93476,0.65618,0.79096,-0.062007,-0.030866,0.026371,0.38045,-0.11792,-0.72068,0.69281,-0.52041,-1.5901,-0.16426,-0.61591,-0.50568,0.67012,-0.57886,0.85128,-0.012975,-0.67681,0.71158
0.16031,0.54434,0.30133,0.3598,0.034981,0.1586,0.55402,0.17998,-0.44693,-0.18189,0.27695,0.33287,-0.37227,0.038322,-0.043099,-0.36586,0.12114,-0.0010177,-0.2267,0.041761,-0.020883,0.01278,-0.062013,-0.26655,-0.12997
-0.015973,0.026302,0.17685,0.38338,0.00081679,0.60523,-0.10908,0.24418,-0.026612,-0.44467,0.7204,-0.29014,0.13592,-0.31739,0.13759,0.50986,0.50986,-0.71209,-0.11504,0.017426,0.017425,-0.2722,-0.11867,-0.079941,0.016561
0.38157,0.63936,0.24329,-0.11424,-0.34758,0.31145,-0.095625,-0.31111,0.36787,-0.044241,0.29632,-0.67239,0.44728,-0.0088776,-0.30039,-0.23643,0.027594,-0.047377,0.17888,0.33952,0.087802,0.23984,-0.087134,-0.30715,0.011752
0.28046,0.51398,0.20751,0.254,-0.30018,-0.041065,0.25663,-0.26197,0.038989,-0.025489,0.067284,-0.028849,-0.048496,0.13707,0.13071,0.098019,-0.037731,0.10136,-0.0067128,0.1036,0.20713,-0.18316,-0.072308,-0.14351,-0.24727
0.85705,0.43327,0.099639,0.17506,0.017013,0.62058,-0.84008,0.16852,-0.75333,-0.045747,-0.20911,-0.35688,0.47328,0.83301,-0.04007,0.13131,0.23785,-0.43087,-0.19763,-0.03542,0.42606,-0.078723,0.051208,0.02747,-0.56347
0.51393,0.68136,1.1875,0.099278,0.046024,0.20728,-0.70605,-0.30353,-0.64047,-0.22037,0.76109,0.35422,0.6436,0.08876,-0.10075,0.35346,-0.20068,0.23765,-0.52532,-1.6637,-0.017638,-0.20566,0.23012,0.063848,0.11606
-0.73034,0.70827,-1.7416,-0.02054,-0.68584,1.627,-1.5822,1.1121,-2.4074,0.30891,2.1202,0.80396,0.37048,-0.13319,0.24899,0.75941,-0.99271,2.9654,-0.72165,0.34976,0.88582,-0.27378,-2.0364,-0.81973,0.88513
0.16524,0.15097,0.12667,0.013091,0.2189,-0.06273,-0.075776,0.20797,-0.032304,-0.19773,-0.085839,0.35451,0.042388,0.073289,0.23036,-0.20027,0.026947,-0.021795,0.091714,0.16825,0.18597,-0.11239,0.020589,-0.24934,-0.038681
0.13513,0.00057676,0.13498,0.40024,0.27986,0.12535,-0.15703,0.31594,0.1565,-0.014564,-0.075733,-0.18705,-0.3544,-0.11082,0.1346,-0.032696,0.46483,-0.089875,8.3671e-05,0.090508,0.10457,-0.020773,-0.17315,-0.10053,-0.026536
0.55747,0.32753,0.063414,0.058001,-0.10158,0.011642,-0.073669,-0.024479,0.11387,0.085408,-0.060237,-0.14481,0.10863,0.2836,-0.07883,0.14435,-0.00088446,0.16679,-0.019528,0.011441,-0.12338,-0.14485,-0.1643,0.10691,-0.1025
0.30677,0.40792,0.11841,-0.085475,-0.032853,-0.079425,0.17383,-0.0159,0.24204,0.19445,-0.37107,0.22651,-0.24066,-0.029065,0.35743,0.14601,0.048905,-0.11502,-0.10368,0.48448,0.75868,-0.6871,-0.54116,-0.27128,0.10726
0.54947,0.26876,0.19348,0.13903,0.12079,0.27102,-0.21929,0.1557,0.069028,-0.22755,0.079411,0.043166,-0.14074,-0.12505,0.29331,-0.15415,-0.10025,-0.32862,-0.033956,-0.063513,0.25323,-0.44644,0.12273,0.023144,0.25729
0.44048,0.4739,0.34945,-0.55641,0.31274,-0.41833,-0.30319,-0.3568,0.61605,0.3253,0.35291,0.27642,-0.59305,0.22087,-0.14534,0.33736,-0.41111,0.20587,0.057421,-0.041558,-0.20917,0.14762,-0.21296,-0.0031632,0.13469
0.92033,0.015176,0.34523,0.18511,-0.13058,0.16049,-0.49912,0.52072,0.14104,-0.84817,0.19996,0.60187,-0.082137,0.17225,-0.13585,0.075253,0.18407,-0.154,-0.46291,-0.2366,-0.15663,-0.21727,0.399,0.038386,-0.035623
0.83673,0.518,0.0892,0.50605,-0.19962,0.43018,0.062151,0.16765,-0.029423,-0.50233,-0.21037,-0.51169,0.47593,-0.27543,-0.41414,0.083113,0.30274,-0.39189,-0.099812,-0.34388,0.3792,0.028759,-0.49592,0.4497,0.14511
0.35291,0.23473,0.19239,0.39933,0.07438,0.16711,0.55889,-0.30278,-0.074949,-0.19431,-0.17206,-0.20107,-0.23212,0.098707,0.1016,-0.13373,-0.073063,0.027403,0.068839,-0.028436,0.34068,0.2655,-0.80657,0.28152,0.055107
-0.055091,0.64525,0.15406,-0.18466,-0.38672,0.23466,0.2746,0.67386,-0.25939,0.33892,0.13355,-0.34582,0.12916,-0.074017,-0.13945,0.17863,-0.19007,0.021211,-0.37631,0.25819,0.18566,-0.3046,-0.098939,-0.050115,0.23743
0.52969,0.44257,0.045828,0.010954,0.083832,-0.16641,-0.13053,-0.16371,0.040115,0.013139,0.3235,0.031794,0.076838,-0.1392,0.064504,-0.063053,0.079194,-0.054228,0.021356,-0.16462,-0.066621,0.020321,0.14834,-0.038198,0.05459
0.37464,0.043914,0.21554,0.060624,0.048014,0.035632,-0.012216,-0.058597,0.057725,0.23374,0.037922,0.12695,-0.060678,-0.022429,0.15009,0.0447,-0.094909,-0.1165,-0.1285,0.12438,-0.082007,-0.026016,-0.11264,0.16154,-0.00092001
0.24666,0.32711,0.19495,0.16692,0.14011,0.066008,0.078005,-0.11966,0.00011825,0.074073,0.023791,-0.11317,0.017984,0.0015472,-0.074437,-0.042211,0.035558,-0.1119,0.025653,0.023148,0.091508,-0.077894,0.098492,0.00092096,-0.073289
0.24916,0.40844,0.29005,0.15833,0.042671,0.01874,-0.09635,-0.021492,-0.039091,0.054486,-0.18476,0.06053,0.0029761,-0.012718,-0.15372,-0.036528,0.084094,0.076247,-0.17702,0.35659,-0.12075,-0.058241,-0.25384,0.22521,0.127
0.6858,0.20553,-0.0020305,-0.096764,0.50935,0.33737,0.046069,-0.23542,-0.036729,-0.085746,-0.19735,-0.059802,0.00054786,0.17408,0.33601,0.2146,-0.21068,0.25675,-0.21815,0.40752,-0.38559,-0.026124,0.084016,-0.55249,-0.15077
0.24777,0.20995,0.0062851,0.11276,-0.35673,0.12864,0.36572,0.36519,-0.26775,0.026751,0.022349,0.14238,-0.16016,0.13074,0.17848,0.086757,-0.24719,0.0226,0.22595,0.066765,0.12411,0.097831,-0.24387,-0.13765,-0.14768
0.87981,-0.38757,0.50755,0.53389,0.53402,-0.35205,-0.35206,-0.28836,0.0036336,0.95238,-0.14853,0.54814,-0.28883,-0.12948,-0.045455,0.25805,-0.076574,-0.8431,0.029992,0.67296,-0.71144,0.4347,-0.40408,0.098116,-0.42573
0.65871,0.26564,0.12645,0.038467,0.010335,0.16382,0.022866,-0.089167,0.28057,0.33962,-0.17188,0.39684,-0.24032,0.11662,0.0089976,0.047181,-0.013914,-0.30457,-0.10393,0.07282,-0.19359,-0.083136,-0.12858,0.037046,-0.25689
0.45652,0.55765,0.011737,-0.078031,-0.016086,0.19487,0.054064,0.29717,-0.028869,0.037545,0.30677,0.078578,0.31101,0.12364,-0.11228,-0.14556,-0.16151,-0.022631,-0.31031,-0.20232,0.00050813,-0.054426,-0.028194,0.061073,-0.33092
0.091884,0.34516,0.03891,0.29997,-0.1876,-0.01082,-0.62983,0.34941,0.99139,0.088869,-0.13227,-0.13081,-0.24967,0.20976,-0.0019432,0.16355,-0.20862,-0.62327,-0.28671,0.54427,0.6653,0.17288,0.26104,-0.30401,-0.45685
0.27362,0.079852,0.13139,-0.033695,0.21199,0.42435,-0.0090803,0.18036,0.17031,0.052679,0.113,0.13558,-0.13991,-0.28347,-0.29913,-0.19829,0.18433,-0.19231,0.17434,-0.090242,0.04483,0.069067,-0.0037883,0.11741,-0.11319
0.8307,0.12843,0.11154,-0.14081,0.28733,0.31586,0.068246,0.35874,0.2139,0.16302,-0.22031,0.19609,-0.19789,-0.38277,0.090866,0.027368,-0.00077185,-0.097993,-0.12928,0.080174,-0.19968,-0.34958,-0.11687,-0.2274,0.19109
1.0546,0.27253,0.8581,-0.16651,0.48392,-0.092911,0.51695,-1.1068,-0.46156,0.48602,-0.78656,-0.24319,-0.089931,0.24865,-0.2139,0.34094,-0.56357,0.043426,-0.23072,0.11413,0.2861,-0.51033,0.72033,-0.94502,0.98527
0.69442,0.19244,-0.039669,0.0017991,0.0058374,0.022471,0.16069,-0.11659,0.20058,0.085456,-0.0037341,0.0015578,0.015249,0.035832,-0.024285,-0.074399,-0.028945,-0.10577,0.029346,0.13667,-0.10474,-0.030884,-0.098638,0.013765,0.031534
0.024977,0.30582,-0.44781,0.09603,-0.17694,0.20245,0.11803,0.0021671,0.28093,-0.31465,0.11819,-0.31559,0.028059,0.8462,-0.13244,0.24085,0.063626,0.50813,0.26908,-0.10447,0.034806,-0.42058,-0.095603,0.22635,-0.35763
0.11315,0.2532,0.044029,-0.12979,0.086178,0.24557,0.0381,0.20541,-0.10783,-0.082273,0.28954,0.09246,-0.12277,0.035715,-0.0022018,0.053223,0.072214,-0.11673,0.39789,-0.1752,-0.21389,-0.18149,0.049072,0.01058,0.14585
0.262,-0.10034,0.61809,0.16417,0.20224,0.15208,0.013997,0.31661,-0.28347,-0.31619,-0.015793,0.70696,-0.034995,-0.11457,0.080317,0.029086,-0.021862,0.23055,-0.18763,-0.062403,-0.068933,-0.26606,-0.32268,0.016071,0.0027571
0.31338,-0.59309,0.40713,-0.0095553,0.38676,-0.011476,0.090922,1.273,0.46118,0.41448,-0.10824,0.42856,0.66377,-0.60309,-0.12018,0.34596,-0.17218,0.25046,0.065256,-0.92199,-0.089566,-0.26518,-0.44758,-1.0595,0.30077
-0.41145,0.20607,1.0202,-0.36617,-0.051197,-0.5039,0.84716,-0.3188,1.4513,0.49631,-0.49682,-0.43642,0.13731,-0.57569,-0.15494,0.43528,0.46572,0.52345,-0.026905,-0.4917,0.024194,-0.2277,0.16487,-0.84947,0.13928
0.88592,0.13789,-0.039717,0.16446,-0.19599,0.022135,0.06308,-0.066061,-0.014296,-0.08553,0.0058756,-0.1565,-0.089143,0.028057,0.39637,-0.26093,0.34562,-0.10737,-0.10737,-0.29855,-0.24415,0.10206,0.10206,0.24192,0.17016
0.15821,0.24896,0.71298,-0.69206,-0.36075,0.58799,0.27914,0.79207,0.24822,-0.42763,0.12626,-0.00907,-0.30353,0.082351,-0.2974,0.0078527,0.06851,-0.17252,0.22468,-0.42279,0.048325,0.092319,0.17324,-0.23186,0.066498
0.52954,0.15954,0.15955,0.12192,0.17736,-0.12822,0.070404,-0.057234,-0.027695,0.048787,-0.042276,0.071474,-0.16874,0.055403,-0.09116,-0.075238,0.15178,-0.050068,-0.021188,0.014641,-0.023557,-0.015356,0.13657,0.011905,-0.0081559
0.014617,0.30456,0.1033,-0.07308,0.045932,-0.022406,-0.11116,0.46629,-0.11646,-0.22337,0.066832,0.14131,0.052235,0.12856,0.14156,-0.047099,-0.13752,0.15278,0.12673,-0.13192,0.18854,-0.086448,0.21065,0.059043,-0.25347
0.18146,-0.014143,0.27608,0.27701,0.26161,0.0099092,0.1635,0.45111,-0.15352,0.27821,-0.0043849,0.26561,0.1674,-0.28465,-0.11855,0.1337,-0.20377,-0.089492,0.23928,-0.26842,-0.097212,-0.082793,-0.46269,0.1341,-0.059347
0.24944,-0.08856,0.32506,-0.44305,-0.11924,0.033375,0.23456,-0.20546,0.13913,0.12713,-0.078285,0.026032,-0.070477,0.067089,0.39858,0.094054,0.01213,0.10435,0.39398,0.18273,0.078681,-0.069954,-0.1494,-0.32577,0.08387
0.47127,0.25717,0.056078,0.0040877,0.39823,0.051041,-0.16699,-0.0055334,-0.098327,-0.0060258,-0.099602,0.053515,0.011176,0.11864,0.090756,0.040671,0.12299,-0.07302,-0.17804,0.094051,-0.19733,0.10431,0.12263,-0.12295,-0.048803
0.57929,0.18151,0.1139,0.0065286,-0.13536,0.051594,-0.081683,-0.23353,-0.053976,0.064172,-0.16319,0.1825,0.022302,-0.27146,0.23952,0.40986,0.029019,-0.21081,0.32232,0.30195,0.10666,-0.17621,-0.12765,0.094429,-0.25169
0.28791,0.27502,0.28201,0.23359,-0.14396,-0.051536,-0.0039748,0.018506,0.019779,0.065869,-0.3488,0.04048,-0.03009,0.1031,0.071288,-0.078734,0.01519,-0.06254,0.1528,0.11394,-0.067727,0.032356,-0.042918,0.082432,0.036011
0.10398,0.9701,0.032438,0.86823,-0.41412,-0.06101,0.34567,-0.14724,0.3082,-0.28346,0.0013204,-0.77612,-0.17246,1.0533,0.85999,0.31223,0.34185,-0.72554,0.39743,0.044801,-0.33923,-0.51971,-0.11973,-0.54202,-0.53889
-0.080938,1.4285,-0.93256,1.3798,1.2247,0.63321,-0.1138,-0.16984,0.30955,-0.00058071,-0.48995,-0.80556,0.66675,-0.22718,0.66987,0.73576,-0.92811,-0.90773,1.0178,0.18848,-0.40973,0.95637,-0.54597,-1.103,-1.4958
0.72909,-0.43042,0.4968,0.63083,-0.057018,0.091234,0.073478,0.21561,0.048001,-0.44593,0.10135,0.64987,-0.22429,-0.52369,-0.27475,0.17314,0.10694,0.28505,-0.15032,0.28027,0.41246,-0.030286,-0.58686,-0.16607,-0.40451
0.61144,0.22889,-0.080651,0.22125,0.033444,0.20171,0.13766,-0.027959,0.16561,-0.1047,0.20784,-0.21021,-0.23763,-0.11257,-0.33131,0.15891,0.068518,-0.03665,0.039569,-0.067865,-0.076386,-0.019531,0.017889,-0.048786,0.2615
0.10563,0.26707,0.66902,-0.53374,0.58541,-0.0070591,0.27257,0.54422,0.55771,-0.26679,2.0465e-05,0.037399,0.063042,-0.042149,0.23537,0.26038,0.29001,-0.60965,-0.14134,-0.40883,0.2851,0.048977,0.14267,-0.61029,-0.74474
0.23086,0.25379,0.41989,-0.38373,-0.0070612,0.03275,0.049035,0.3488,0.26807,0.12776,-0.14393,0.04853,0.037664,-0.38571,-0.09689,0.039346,0.32079,0.10914,-0.12448,0.044396,-0.31553,-0.22587,0.085184,0.22578,0.041415
0.22381,1.2817,-0.013494,0.61081,-0.26546,0.41507,0.19115,-0.041866,-0.31668,0.099356,-0.38146,-0.34469,0.19764,0.050825,-0.054538,-0.3784,0.16831,-0.21761,-0.31359,-0.58443,-0.1816,0.22639,0.44835,0.058867,0.12158
0.2613,0.18373,0.36759,0.27192,-0.2437,0.0047921,0.35558,0.1621,-0.1907,-0.11914,0.31719,0.081666,-0.070562,0.00090729,0.19969,0.11287,0.10882,0.00929,0.29687,-0.11984,-0.058442,-0.091529,-0.26468,-0.30974,-0.26598
0.19199,0.24156,0.24117,0.18582,0.099393,0.0013334,-0.023771,0.03535,-0.00076839,-0.078566,-0.018559,-0.010861,0.10558,0.017678,0.077284,-0.14437,0.023473,0.055745,0.050839,-0.12227,-0.015238,-0.063182,0.059671,0.061883,0.028811
0.86436,0.23835,0.38802,0.47626,0.18994,0.072263,-0.34435,-0.35155,-0.48825,-0.34609,0.040458,0.14234,-0.057208,0.10569,0.10054,0.14097,0.0029258,-0.19631,0.081769,-0.0049601,0.0195,-0.00033332,-0.071107,0.013221,-0.016468
0.50466,0.094416,0.2518,-0.060557,-0.12441,0.075359,0.15739,0.56659,0.35938,0.07706,-0.13845,-0.091837,-0.16388,-0.094805,-0.11847,-0.16056,-0.55569,0.01064,0.034014,0.37575,0.018518,-0.07758,0.11093,0.15847,-0.20872
0.44844,0.19872,0.10801,0.24529,0.24797,-0.048608,0.30597,-0.0031696,-0.040778,-0.31278,0.25196,-0.00098466,-0.48623,-0.22419,-0.49455,-0.54054,0.61228,-0.11426,0.21802,-0.11354,0.025391,0.25212,0.26639,0.49333,-0.29426
0.44871,0.86046,0.4411,0.64269,0.40968,-0.018425,-0.91106,0.015292,-0.12062,0.073323,0.52264,0.034232,-0.18393,-0.44423,0.32264,0.11149,0.35115,-0.0023067,-0.8276,0.015188,-0.18307,-0.36732,-0.28137,0.13763,-0.046271
-0.07256,0.68602,0.065508,0.5198,0.47996,0.0087774,0.24962,-0.16633,0.33262,0.00018322,-0.23244,-0.069423,0.0031183,0.23131,-0.4228,0.37425,-0.34567,-0.20571,0.22238,0.081067,-0.25248,-0.13126,0.048738,-0.46542,0.060757
-0.65514,0.37118,0.21404,0.29723,-0.24989,0.099998,-0.29041,0.13183,0.57788,0.18891,-0.15839,0.32549,0.013958,-0.18588,-0.47818,0.34829,-0.16449,0.016807,0.062743,0.23896,-0.42234,0.41402,0.020806,-0.19043,0.473
0.1121,0.12497,0.52467,-0.21392,0.10864,0.0055623,0.66723,0.17825,0.052705,-0.11489,0.14372,0.18702,-0.18304,-0.35953,0.34139,-0.43002,-0.022689,-0.16533,0.20097,0.1979,-0.18676,0.65842,-0.26052,-0.18363,-0.38319
0.34981,0.33558,0.33444,0.062628,0.091369,0.080146,-0.12969,0.07697,-0.054632,-0.14815,0.021336,0.020718,-0.17669,-0.24761,-0.0012611,-0.1026,0.091552,0.085965,0.085584,0.11175,-0.061224,0.16517,-0.016242,-0.051827,0.0769
-0.066031,0.093517,-0.427,0.20998,-0.12493,-0.081902,-0.071117,0.92444,-0.43802,-0.45494,0.47818,0.6144,-1.1979,1.3048,1.2003,-0.27079,1.1444,0.082069,0.030626,-0.39303,-0.74617,0.19013,0.58698,-0.37582,-1.2121
0.73927,0.56639,0.15307,0.14761,0.035316,-0.73716,0.34352,0.7865,-0.65382,-0.256,0.42094,-0.4875,0.50033,-0.12972,-0.39382,-0.20792,-0.58796,-0.63142,-0.24687,-0.25698,-0.19957,0.30047,0.78146,0.65433,0.35952
0.089502,-0.20682,0.033236,0.47484,-0.071485,0.54348,-0.14625,0.12793,0.23099,0.29488,-0.20234,0.77755,0.4201,-0.27642,-0.39778,0.80901,-0.18936,0.68135,0.16824,-0.29468,-0.29531,-0.11418,-0.89485,-0.1653,-0.39632
0.14956,0.33407,0.23049,0.29232,-0.053803,-0.18388,0.30996,0.079839,-0.1445,0.11977,-0.062995,0.21093,-0.20874,0.039741,-0.015707,-0.032539,-0.27635,0.1031,-0.15324,0.12814,0.046269,-0.10586,0.25752,-0.058911,-0.0051817
0.405,-0.056393,0.54691,-0.13865,0.092141,0.079219,0.63862,-0.56689,0.18327,-0.30168,0.20868,0.19338,-0.2249,-0.65235,-0.13864,-0.15413,-0.025483,-0.17452,0.16231,0.14892,0.17762,0.013243,-0.33692,0.21851,0.70275
0.3489,0.030805,-0.32376,0.10487,0.03012,0.15974,-0.12577,-0.062556,0.0061163,-0.17039,-0.019447,0.4592,-0.0010998,0.0038787,-0.040275,-0.045958,0.10847,0.050884,0.38028,0.032153,0.068196,0.25218,-0.22585,-0.028149,0.0074627
1.291,-1.4233,0.91912,-1.1192,0.6355,-0.50678,0.19454,-1.1464,-0.16923,-0.30137,0.10931,-0.87655,-0.04402,-0.0061445,1.6928,-0.049166,-0.79921,-0.15207,-0.54992,1.1884,0.79611,1.2892,-0.42211,0.47268,-0.023267
0.14604,0.78699,-0.56759,0.58144,-0.88906,0.34162,0.10162,-0.22379,-0.49052,-0.00058957,-0.77257,-0.20133,-0.10923,-0.34034,0.46594,0.77291,0.0012465,-0.10451,0.0030804,1.4996,0.29503,0.20976,-0.096848,-0.26454,-0.14435
0.28382,-0.16059,-0.52223,-0.064153,0.058814,0.2033,0.009234,0.51339,-0.71537,0.47733,0.39835,0.31158,0.48699,-0.88521,-0.1607,-0.4074,0.4085,0.37296,0.23594,0.31231,-0.22983,-0.08285,0.33203,-0.61896,0.44276
0.4915,0.18834,0.1508,0.3885,0.06902,-0.037794,-0.16387,0.041796,0.068038,-0.24434,-0.079481,0.059537,0.078991,-0.03149,-0.031123,-0.025139,0.10188,-0.12036,0.020966,-0.054818,0.092213,0.07924,-0.019485,-0.12715,0.10422
0.28907,-0.031075,-0.14036,0.034586,0.44458,0.60272,-0.050957,-0.34995,0.3816,0.45449,0.35639,-0.064064,0.40026,-0.40025,0.15488,0.16469,-0.2149,-0.039643,0.30786,0.078153,-0.29661,-0.80702,0.47264,-0.47757,-0.26954
0.52334,0.24889,0.20425,0.007279,-0.021207,-0.035269,0.098758,-0.040316,-0.30403,0.13245,0.28395,-0.12547,0.63158,-0.14145,0.27314,-0.27841,-0.0039703,-0.26098,-0.52185,0.14917,0.032115,-0.070607,0.084245,0.17272,-0.038336
0.2131,0.15408,0.36301,0.37648,0.030944,0.26733,0.046017,0.015877,-0.2425,0.040297,0.27601,-0.2393,-0.094902,0.1804,0.16343,0.077034,-0.14847,-0.41388,-0.42153,-0.27965,0.089862,-0.029656,-0.040455,0.34547,0.27101
0.61325,0.3088,0.13896,0.19054,-0.45927,0.25552,0.048909,0.10104,0.20284,0.037782,-0.32966,0.10708,0.086919,-0.15716,0.24071,-0.21265,-0.038381,0.08734,0.80802,-0.15641,-0.8984,0.15644,0.121,-0.0059548,-0.24724
0.50974,0.33005,0.0085091,0.15271,-0.010488,0.58613,0.15653,-0.37822,0.029037,-0.093972,0.37143,-0.73086,-0.41228,0.1465,0.14063,-0.46619,0.27626,0.52102,0.032671,-0.12879,0.020456,-0.23746,0.033632,0.11899,0.023981
0.38525,0.044039,0.0033828,0.13099,0.13811,0.12709,0.28335,0.20816,-0.2015,0.2025,-0.14398,0.00032952,-0.044775,0.081619,0.12347,0.12213,0.0083987,-0.189,-0.27279,0.027023,0.066692,-0.032296,-0.030784,-0.036959,-0.00044945
0.18073,0.64725,0.22715,0.30148,-0.071386,0.093508,-0.10764,-0.16317,0.22148,-0.0045352,-0.17843,-0.077164,-0.016274,0.033715,-0.13803,0.30539,0.27689,0.087481,0.072125,-0.05436,-0.10184,-0.19191,-0.12448,-0.11044,-0.10754
0.4335,-0.49914,0.4242,0.67461,0.099538,0.47889,0.28004,-0.79241,-0.0076541,0.58935,0.49077,0.31601,-0.56867,-0.82078,-0.33309,0.038588,-0.23636,0.018697,-0.43104,-0.30077,-0.21217,0.30421,0.93134,0.12056,0.0017382
1.1323,-1.0953,1.4312,-0.7564,1.8734,-1.1606,1.4448,0.4558,-1.3196,-0.82639,-1.2589,1.855,-0.35728,-1.2199,0.22751,1.7303,-0.56615,-0.33105,0.046344,-1.1505,-0.038581,0.14988,-0.21243,0.22845,0.71801
0.77479,0.79409,-0.44856,-0.091281,0.15151,-0.33789,-0.41516,0.14695,0.10595,-0.060016,-0.12734,-0.27259,-0.055291,0.50902,-0.21894,-0.083387,0.36187,0.17802,0.36806,0.023214,-0.63151,-0.18194,0.4724,0.41087,-0.37286
-0.03849,-0.10817,0.2405,-0.70045,-0.19276,-0.28056,-0.14297,0.31358,-0.050972,0.071649,-0.12907,0.057383,-0.15982,0.40825,0.12704,0.086017,0.2667,0.4451,0.25852,-0.045186,0.21245,0.060056,-0.49676,0.024644,0.77331
0.11765,-0.75499,0.81725,-0.15311,0.18637,0.73993,-0.20939,-0.36132,-0.48001,-0.016418,0.39751,-0.27453,-0.3408,-1.1488,0.34246,-0.011303,0.82184,0.020047,0.44518,-0.49134,0.86009,-0.91825,0.26828,0.77224,0.37137
-0.14668,-0.21766,0.67022,0.10184,-0.018769,0.65368,0.1455,0.33963,0.35778,0.093299,-0.38569,0.15597,-0.44578,-0.16377,-0.27107,0.13819,-0.27115,0.30741,-0.34397,-0.10125,0.11588,0.33961,0.21599,-0.19717,-0.072052
0.43657,-0.12031,0.55126,0.098342,-0.32916,0.34846,-0.17003,0.49044,-0.37726,0.66446,0.048239,0.048225,-0.022129,0.52763,0.3658,0.014204,-0.46162,-0.25672,-0.30934,-0.30936,0.25251,-0.18815,-0.21032,0.14134,-0.23306
-0.059088,0.98631,-0.043007,-0.17465,-0.20924,-0.03293,0.11852,0.29004,-0.011746,0.47092,0.10091,-0.28852,-0.1853,-0.3299,-0.33816,-0.22699,0.48736,-0.19298,0.15059,-0.0087453,0.18111,-0.19046,-0.15724,0.23379,0.42942
0.38661,0.46859,0.10338,-0.094341,0.053311,0.0222,-0.23314,-0.017771,0.082401,0.36527,-0.032277,-0.026433,-0.023775,-0.053525,0.067644,-0.22613,-0.072771,0.016062,-0.043869,0.054733,-0.10273,0.041961,0.15301,-0.03422,0.14582
0.45487,-0.19534,0.30014,-0.026817,0.51616,0.56643,-0.59936,0.086,0.3732,-0.12292,0.11372,-0.25762,-0.00025754,0.0022954,0.13292,-0.32952,0.11009,0.1097,0.20687,0.00017028,-0.32051,0.012501,-0.12298,0.020694,-0.030429
0.43732,0.24716,0.15262,0.23854,0.10879,0.16851,-0.013535,-0.31008,0.19322,0.058327,0.10807,-0.017116,-0.15447,0.027445,-0.04594,-0.06247,0.18288,-0.075503,0.11548,0.044447,-0.31347,0.20383,-0.077166,-0.048323,-0.16857
0.26242,0.34395,0.36074,0.072864,0.023347,0.12995,0.12571,0.10937,0.056321,0.069374,-0.10998,0.024367,0.015048,-0.13261,0.047229,0.03611,-0.15655,-0.10446,-0.1558,0.044447,0.00034672,-0.058369,-0.044162,0.098026,-0.057675
0.54717,0.029206,0.00026353,0.42115,-0.097822,0.18872,0.15757,-0.2546,0.019725,0.12641,-0.13429,0.14843,-0.20245,-0.0413,-0.093116,0.040316,0.0011428,-0.28,0.043743,0.055702,-0.0078159,0.20121,-0.065735,0.19434,0.0020556
0.32534,0.61461,0.33345,0.015392,-0.32802,-0.11567,-0.06957,-0.049782,0.22729,0.078161,0.030842,-0.037052,0.16405,-0.16171,-0.28713,0.32047,-0.087828,-0.58275,0.20609,0.24795,0.20928,-0.28384,0.027055,0.32605,-0.12268
0.85778,-0.061614,0.029303,0.13166,-0.15453,0.031843,-0.18043,0.14776,0.034549,0.10076,0.10083,-0.10504,0.13591,0.11495,-0.079122,0.027627,-0.063633,0.12898,0.058255,0.041674,-0.16188,0.053472,-0.079336,0.010757,-0.12052
0.25402,0.31268,7.2022e-05,0.30208,0.074807,-0.020856,0.063942,0.080144,0.26562,-0.10332,0.0063924,-0.097682,0.21764,-0.15607,-0.1909,-0.17085,0.05152,0.051516,0.13046,0.058843,-0.089086,-0.089009,0.16326,0.0096237,-0.12486
-0.51752,0.60065,0.28173,0.26702,0.59717,0.093475,0.38201,-0.78418,0.015258,-0.35171,0.58154,0.25119,0.35063,0.63549,-0.081302,0.48918,0.3609,-0.29874,-0.48713,-0.075684,-0.067534,0.7995,-0.63215,0.057357,-1.4672
0.15471,0.32914,0.40606,0.35809,-0.11653,-0.05683,0.06709,-0.28844,-0.00039925,-0.51945,0.92516,0.023952,0.11539,0.079934,-0.26512,-0.057186,-0.13487,0.12381,0.16354,-0.63953,0.13224,0.13363,-0.39792,0.28784,0.17569
0.43454,0.5081,0.61709,-0.82999,-0.055898,-0.034019,-0.13144,-0.072581,0.20212,0.58278,0.24221,-0.090032,0.05619,0.42486,0.79021,-0.14384,0.060853,-0.56698,-0.3417,0.069954,-0.42832,-0.27133,-0.082224,-0.047294,0.10675
0.77124,-0.17125,0.32891,0.16679,-0.81894,-0.23887,0.57524,0.0383,-0.26755,-0.061778,-0.2528,0.90386,0.27721,-0.6073,0.30232,0.25155,-0.17199,0.35497,-0.33034,0.10536,0.087839,-0.57672,-0.25189,0.36723,0.21861
-0.0015702,0.97759,-0.21279,0.238,-0.23083,0.053576,0.33438,0.19471,0.19154,0.11958,0.11958,0.33004,-0.24556,0.17848,0.18484,-0.36062,-0.43312,-0.060496,-0.060463,-0.26206,-0.18571,-0.039041,-0.11434,-0.11803,0.40232
-0.076298,0.18379,0.32459,0.54572,-0.053662,-0.0074725,0.063503,-0.1333,0.10091,0.0014044,-0.14388,-0.0067009,0.057955,0.36748,-0.03568,0.10692,-0.29802,0.011466,0.1542,-0.055238,-0.20362,0.1786,-0.26572,0.099199,0.083855
0.64417,0.52808,0.67147,1.2033,0.8618,0.39951,-0.37715,0.29168,0.11377,0.19498,0.1073,-0.78475,-0.77998,0.1546,-0.044535,-1.007,0.45243,0.22139,-0.89299,-0.48792,0.23836,-0.0039649,-0.39388,0.02234,-0.33305
0.58954,0.57034,-0.07222,-0.17633,0.025798,0.0014334,0.10005,0.12551,-0.0012146,-0.15862,0.18423,-0.32826,-0.00064938,-0.30031,0.27269,-0.12063,0.039211,-0.076875,-0.32843,-0.22534,0.20516,0.037198,0.1022,0.47246,0.063057
-0.22541,0.61068,0.26788,0.48192,0.08415,1.2459,-0.66208,-0.80255,0.52191,0.041661,0.11695,0.099054,-1.0853,0.39839,0.16275,-0.63746,1.4495,0.60906,0.10724,-0.79324,0.21461,0.12718,-0.97922,0.45534,-0.80891
-0.43391,-0.057902,0.060687,-0.69271,0.80805,0.15126,-0.41392,0.66178,-0.38198,0.64139,0.29557,-0.32509,0.30314,0.0088311,-0.33536,0.29716,0.49198,-0.16567,0.15433,-0.33615,-0.029552,0.7007,-0.15686,-0.15148,-0.094302
0.30183,0.38455,0.29244,0.022667,-0.05744,0.25769,0.37674,-0.032506,0.11419,-0.061573,-0.14767,0.028523,-0.25092,0.14303,0.17504,-0.018428,-0.24656,-0.23392,-0.011047,-0.17005,0.062385,-0.10973,0.20587,-0.035343,0.010243
1.0575,0.22623,0.27553,-0.10467,-0.39679,0.24855,-0.57717,0.17573,0.21399,0.43761,0.32732,-0.21386,0.26031,0.57098,-0.22672,-0.44346,-0.00066333,-0.29688,0.57002,-0.056939,0.22362,-0.45257,-0.48783,0.16999,-0.49987
0.30493,0.15339,0.18639,0.35369,0.062833,0.155,-0.042711,-0.20073,-0.016256,-0.26674,0.19115,0.19126,-0.266,0.066778,0.097815,0.20809,-0.052607,0.053454,-0.090835,0.00039392,-0.015514,-0.34793,0.13011,0.0037813,0.14027
0.32938,0.21232,0.48618,-0.43509,0.14203,-0.00079179,-0.038981,-0.29874,0.39409,0.39135,-0.089498,-0.030931,0.10179,0.36274,-0.15979,-0.060433,-0.29363,-0.0044753,0.0060491,0.43879,-0.025145,-0.58188,0.11747,0.0010133,0.036183
0.025372,0.83645,-0.031796,0.20771,0.34602,-0.019063,-0.25423,0.21521,0.26356,-0.48538,-0.15155,0.35044,0.095709,0.099413,0.24703,-0.23567,0.010721,-0.13965,0.14523,0.61395,-0.32124,-0.0039487,-0.29517,-0.25706,-0.26204
0.4411,0.049476,-0.18693,0.37075,0.24401,-0.25348,0.30402,-0.31231,0.38634,-0.25199,-0.53889,0.60563,0.17949,-0.00027502,0.21815,-0.086777,0.41301,0.18589,0.22329,0.14024,-0.14387,-0.31783,-0.25645,0.10899,-0.52158
0.62807,0.075752,0.54351,0.1535,-0.17199,0.1676,-0.13552,-0.082751,0.014245,0.065679,0.43315,-0.0033032,-0.010324,-0.065454,0.11588,-0.14148,0.29469,0.12173,-0.40228,-0.06705,-0.21376,-0.43966,0.090839,0.049033,-0.020112
0.32223,-0.02614,-0.2349,0.020898,0.97828,-0.54429,-0.1424,-0.35621,0.054966,-0.68362,-0.24227,0.90677,0.79565,-0.0044443,-0.15211,-0.02667,0.57256,0.26379,0.41438,0.18066,0.018887,-0.22247,-0.95284,0.22173,-0.16244
0.01496,0.010925,0.17149,0.32299,0.29836,0.048992,0.096033,0.050236,0.24899,-0.31596,0.0363,0.045918,-0.011128,0.10686,-0.02814,0.0013758,0.0067225,0.10674,-0.22262,0.0060035,0.061639,-0.050896,0.11722,-0.012139,-0.11088
0.06862,-0.017458,0.091851,0.063693,-0.22983,0.28937,0.034897,0.39502,-0.023326,0.33437,0.4766,0.085149,-0.11187,0.13428,-0.18044,0.059375,-0.067712,-0.3459,-0.015999,-0.091977,-0.04085,0.2277,-0.12421,-0.29698,0.28561
0.9156,-0.058709,0.28318,-0.20595,-0.1814,0.094056,-0.16503,0.33445,-0.23885,-0.2146,0.71783,0.15766,-0.44388,-0.069967,0.60796,0.0034088,0.065053,0.63002,-0.1839,-0.33286,-0.19945,-0.18693,0.23027,-0.085015,-0.47296
0.93695,0.61597,-0.22481,0.066369,0.40154,0.29215,0.14016,-0.562,0.10332,-0.21087,-0.16027,-0.56562,0.080222,0.40489,-0.34212,0.21234,0.042928,0.43891,0.01089,-0.0019804,-0.099696,-0.20465,-0.12919,-0.065149,-0.1803
0.4273,0.50378,0.36477,0.18666,0.082169,0.2545,-0.025953,0.11795,-0.0096363,0.3367,-0.5294,0.54504,-0.53118,-0.0021252,-0.13753,-0.16727,-0.00075538,-0.31988,0.14611,0.24905,0.21983,-0.3718,0.051482,-0.28049,-0.10934
0.8054,0.22605,0.010649,0.16999,0.050667,-0.36782,1.1434,-0.20596,0.41824,0.27754,-0.41067,-0.39956,-0.20746,0.033175,0.13608,-0.032631,-0.26435,0.196,-0.39399,-0.23562,0.30928,-0.09672,-0.13879,0.049591,-0.072542
0.82997,0.53619,-0.30546,-0.43095,0.11786,0.055908,-0.4036,-0.1001,0.36773,0.22844,-0.34429,0.48887,-0.22112,-0.0086096,0.33119,-0.13449,-0.17512,0.35207,0.26575,0.11672,-0.067411,-0.3715,-0.33226,-0.053466,0.25769
0.95146,1.0429,0.083589,0.73755,0.12648,-0.042733,0.29464,-0.011034,0.36877,-0.37598,-0.55964,0.25164,0.17523,-0.26377,0.20773,0.62856,0.23342,-0.33138,-0.70466,-0.11432,0.041902,-0.24754,-0.52926,-0.48283,-0.48068
0.29355,0.077194,0.099651,0.28063,0.31632,-0.14971,0.2759,-0.12384,0.27447,0.052931,0.21458,0.045011,-0.0013872,0.02921,-0.090617,-0.097221,0.09375,0.21368,-0.2059,-0.10957,-0.11264,-0.22085,-0.063008,0.01522,-0.10733
0.28784,0.54298,-0.00616,0.15573,0.26847,-0.041598,-0.067856,0.040152,-0.41217,-0.0071029,-0.18664,0.23862,0.044854,-0.0072361,-0.059632,0.12514,-0.0055411,-0.023728,-0.057806,-0.042731,0.0026097,-0.0035094,0.13165,0.0037826,0.079891
0.85243,-0.10848,0.11398,0.51372,-0.00021619,-0.093083,-0.093951,0.10196,0.25405,-0.11379,0.18633,0.017401,-0.14322,0.21331,-0.12165,-0.20026,-0.19375,0.0039246,0.25877,-0.10302,0.037305,0.14459,-0.32008,0.0037946,-0.21005
0.19629,0.0086963,0.44471,0.12971,0.15466,0.024217,0.15872,-0.044464,0.16478,0.30271,-0.12466,-0.12135,-0.037961,-0.080306,-0.30951,0.034274,0.047624,0.0058937,0.055324,0.032116,-0.053002,0.036353,-0.057824,0.055845,-0.022838
0.42667,0.043341,0.2928,-0.35103,0.14591,-0.2172,0.58196,0.16534,0.14184,-0.078585,0.024466,0.17939,0.087042,0.3646,-0.05154,-0.31603,0.1668,0.016376,0.57395,-0.39597,-0.12388,0.24977,-0.18377,-0.65104,-0.091235
0.88578,-0.2596,0.40347,0.53566,0.10864,-0.36004,-0.31287,0.17384,-0.15497,0.40254,0.28267,-0.12087,0.27966,-0.54214,0.04628,0.27107,-0.019283,-0.069904,0.0797,-0.074527,0.14536,0.095226,-0.50603,0.012817,-0.30249
0.33475,0.36704,0.48147,-0.13614,0.042724,0.19556,-0.075384,0.14676,0.0013318,-0.074019,-0.25184,-0.056653,-0.029645,0.03667,0.034191,-0.083567,0.040171,0.077012,0.068477,-0.27107,0.27435,-0.029855,0.022311,-0.06142,-0.05321
0.11673,-0.42185,0.23844,0.91906,0.33347,0.11475,-0.15734,0.713,0.10729,-0.029172,0.19406,-0.036941,0.63499,-0.074599,0.032637,0.012418,0.30837,-0.26895,-0.41069,-0.052493,-0.35301,-0.11335,-0.39069,-0.099656,-0.31647
0.31665,0.73737,-0.035589,-0.40057,-0.027156,0.13354,0.37439,0.27316,-0.0093326,-0.082109,-0.06388,0.089526,-0.21172,-0.13298,0.033497,-0.13776,0.1584,0.069115,-0.22372,-0.093667,0.035926,-0.07451,-0.015364,0.18898,0.097797
0.33153,1.3577,0.097765,-0.39448,0.26096,0.1037,0.33324,0.16635,-0.3536,-0.094983,0.49593,-0.62174,0.14595,-0.00741,-1.0093,-0.89993,-0.34352,0.57895,0.50719,0.31355,-0.10459,0.2997,-0.56148,0.05729,0.3412
0.45079,-0.00033039,0.18808,0.54056,0.19091,-0.59323,-0.15712,0.31694,-0.16737,-0.29202,-0.1684,0.13203,-0.09493,0.41707,-0.25745,0.28701,-0.21467,-0.026081,0.59421,0.19063,-0.084391,0.18499,-0.569,-0.12299,0.25475
0.28905,0.25136,-0.091246,0.10341,0.15886,0.27386,-0.84399,0.12173,0.1164,0.11545,-0.64184,-0.16307,0.47613,-0.06034,0.36901,0.49017,0.16002,0.33797,-0.22059,0.15299,-0.21607,-0.17468,0.33534,0.2444,-0.58435
0.19754,0.22757,0.28342,0.041775,0.17651,0.044627,0.13252,0.14358,0.023863,-0.14819,-0.071877,0.18864,-0.048523,0.056387,-0.10878,-0.14343,0.18106,-0.18471,-0.011426,0.0008439,-0.083586,0.080052,0.0012862,-0.035031,0.055887
1.0571,0.19708,0.49457,-0.44389,0.64254,0.94356,0.16165,0.20875,0.092787,-0.25923,-0.61686,0.070425,0.69394,-0.63452,0.60184,-0.58496,-0.63039,0.83295,-0.8566,-0.10424,-0.45371,0.053724,-1.07,0.0034364,0.60006
0.23657,0.21973,0.088,0.38394,0.26161,0.010582,-0.024812,0.071984,0.11997,0.050678,0.053994,0.010432,-0.0049517,0.030286,-0.01395,-0.1804,-0.042396,0.04017,0.12805,-0.053562,-0.21694,-0.13283,-0.028912,0.023834,-0.031083
0.54989,0.17528,-0.005439,0.28877,-1.2503,-0.40004,0.15723,0.43481,0.70965,0.86012,0.19557,-0.19328,0.56765,-0.11983,-0.37253,0.034665,0.093555,0.43672,-0.24022,0.14271,-0.18768,-0.38084,0.17806,-0.01034,-0.66417
-0.17961,0.40563,0.4026,0.46876,-0.039567,0.093493,0.15754,0.45463,0.43061,0.33992,-0.16102,-0.034057,-0.51774,0.63873,-0.0010472,-0.0095456,-0.16479,-0.10116,-0.20139,0.067801,-0.14758,-0.24205,-0.11845,-0.56523,0.023518
0.75676,0.18691,0.062937,-0.0060882,-0.024808,0.086723,-0.0087443,-0.0083791,0.031129,0.24393,-0.11535,0.025518,0.023589,0.62299,0.2679,0.021452,-0.11313,-0.0023905,-0.14679,0.041709,-0.17338,-0.14539,-0.6905,0.019146,0.044265
0.89887,0.19839,-0.12713,-0.046902,0.50271,0.87801,-0.99881,0.22188,0.46174,0.22861,0.16943,0.12614,-0.958,-0.063474,-0.036887,0.39515,-0.46166,0.10878,0.19273,-0.14299,-0.013815,-0.046294,-0.17024,-0.043746,-0.27248
0.33323,0.26469,0.39912,0.011396,0.22418,-0.051746,0.42569,-0.080544,-0.29428,0.23644,0.17431,-0.0015171,-0.13881,-0.06606,-0.0027222,0.16537,0.054004,0.268,-0.21385,-0.31492,-0.12538,0.054431,-0.24274,0.021006,-0.099294
0.059189,1.0062,-0.28675,0.065528,0.017499,0.36163,-0.054425,0.12997,0.3827,0.084838,0.46613,-0.36706,-0.65354,-0.38994,-0.14254,0.12096,0.071205,-0.32067,0.4155,0.010301,-0.030827,-0.051622,0.033062,0.073068,-0.00041725
0.25048,0.35886,0.10767,0.22799,0.16705,-0.017091,0.26317,-0.032823,-0.014718,-0.090022,-0.0036756,-0.11029,0.10507,0.30952,-0.26954,-0.14975,0.068715,-0.23394,-0.077202,0.092105,-0.087933,-0.21123,0.12428,0.21247,0.01083
0.0040005,0.28101,0.37676,0.15561,0.11835,0.30528,-0.079728,0.46316,-0.061707,0.14824,0.27788,0.22537,-0.29308,-0.026051,-0.036811,-0.39129,0.25141,0.19634,-0.043715,-0.13762,-0.47391,-0.59505,-0.0032981,-0.038289,0.37713
0.72631,0.046494,-0.024095,0.2157,-0.017361,0.17221,0.065591,-0.051016,0.011208,-0.18568,-0.10612,0.11868,-0.0027472,0.039358,0.17477,-0.14165,0.023248,0.086551,0.093076,-0.11747,-0.061308,0.062344,-0.053496,-0.074665,6.7196e-05
0.54325,0.20921,0.34973,0.43083,0.16871,0.27965,0.096812,-0.076125,0.0072194,0.11149,0.062002,-0.076615,-0.12066,-0.064709,-0.45284,0.073713,0.12966,0.26912,-0.22996,0.01819,-0.22414,0.022845,-0.28526,-0.3113,0.06918
0.36646,0.21166,0.24137,0.19849,0.052432,0.19266,-0.062172,-0.082167,0.0048966,-0.040855,-0.065342,0.26872,0.0016293,-0.10766,0.21746,-0.27568,0.23501,-0.29996,-0.015351,-0.44768,-0.092851,0.32422,0.034597,0.0021661,0.13795
-0.47682,-0.36056,0.53105,0.37363,-0.11905,0.98531,-0.21107,0.11455,-0.0092691,0.16933,0.67839,-0.044156,0.28811,0.89959,-0.13247,-0.46451,0.23178,-0.78495,-0.018793,0.36242,0.086389,-0.36155,-0.14264,-0.59565,0.00094026
0.26054,0.35722,0.17457,0.33881,0.50418,0.071914,-0.065988,0.0062211,0.14125,-0.081891,-0.45507,0.26261,-0.37217,0.44179,0.16339,0.078739,0.075961,-0.083407,-0.40745,-0.17132,0.1235,0.024909,-0.49779,0.22931,-0.11985
0.53534,-0.0016442,0.18929,0.27808,0.20962,-0.083656,0.15633,-0.00096521,0.22981,-0.44883,0.038286,0.20075,0.072202,-0.067501,-0.38169,-0.13809,-0.068313,-0.29821,0.10829,0.11757,-0.087776,0.21686,0.035261,0.039504,0.14947
0.57868,0.074703,0.089457,0.16266,0.056089,0.14423,0.0039609,0.0075759,0.17724,-0.035103,-0.086283,-0.060169,0.26194,0.051136,0.19415,-0.10103,-0.0060362,0.035662,-0.15211,-0.073433,-0.055058,-0.15514,-0.052985,0.070186,-0.13032
0.13554,0.023142,-0.25153,1.1514,-0.55287,0.95899,-0.065751,0.05242,-0.34787,0.3825,0.49212,-0.59453,0.33831,0.61834,-0.63456,0.19168,-0.23882,-0.7147,0.056799,-0.023474,0.022674,-0.086503,0.20169,0.026302,-0.14132
-0.48047,0.23891,-0.77188,1.0049,0.73517,0.056557,1.1146,-1.0655,0.74907,0.79267,0.25046,-0.67312,-0.6908,-0.24719,0.58009,-0.15974,0.6605,0.94935,0.22806,-0.32831,-0.091176,-0.44584,-0.29617,-0.43872,-0.67137
-0.073392,0.73595,0.057453,-0.26405,-0.12729,0.18529,-0.26614,0.089019,0.27515,0.24807,-0.066627,0.46315,0.14318,0.31541,0.029679,0.15157,0.16841,0.58935,-0.389,0.1638,-0.17197,-0.25003,0.21116,-0.82712,-0.39103
0.47739,-0.13612,0.013669,0.23896,0.23893,-0.46147,0.16445,0.088527,0.43699,-0.1904,-0.1148,0.34213,-0.35323,-0.19547,0.22645,-0.022718,0.1409,-0.17418,-0.10673,0.31839,-0.12668,0.32096,-0.16701,-0.051229,0.09228
0.60204,0.048751,0.037772,0.13775,0.048269,0.11132,0.14271,-0.06396,0.11997,0.053789,0.039306,0.0077165,-0.063744,0.00031791,0.017816,-0.023784,0.015327,0.18767,0.053619,-0.084754,-0.28376,-0.06089,-0.033096,-0.0099662,-0.00018496
0.29836,0.3639,0.15571,0.18947,0.13553,-0.00020231,0.16171,-0.15912,-0.032591,-0.14272,0.0033257,0.034376,-0.045749,0.041101,0.18118,-0.09288,-0.29747,0.19088,-0.023604,-0.008157,0.090986,0.014076,0.025371,-0.025742,-0.057756
0.46091,1.1795,0.0058854,-0.26213,-0.82267,0.18709,0.58854,0.36181,-0.007192,0.25067,-0.2931,0.15744,-0.99802,-0.1307,0.18064,0.45222,0.15544,-0.87939,0.30111,0.034787,0.16515,-0.091779,-0.16488,0.0391,0.1296
0.092071,0.01823,0.40249,0.34655,0.19853,0.069979,0.41576,0.311,-0.46475,0.36429,-0.36917,-0.11976,0.03835,-0.11537,0.0037529,-0.53858,-0.10368,0.23741,-0.094407,0.11207,0.1469,-0.084418,0.12962,0.059995,-0.056875
0.50377,0.10877,0.54185,0.46211,-0.14405,0.69242,-0.037132,0.19582,0.21382,0.2412,-0.27994,-0.19245,0.0024124,-0.54822,0.039169,-0.37838,-0.015451,-0.11572,-0.071775,0.21085,0.36355,-0.5239,-0.39287,-0.14625,0.27041
0.46843,0.24838,0.17192,0.21497,-0.071616,0.045972,0.17027,-0.032866,-0.085237,0.28179,0.042291,0.13204,0.040174,0.11259,-0.023101,-0.013857,0.13662,-0.31383,-0.15486,-0.37565,0.050898,-0.096021,-0.065154,-0.012772,0.1286
-0.16093,0.19636,-0.28561,0.047355,0.35439,0.17466,-0.030795,0.33643,0.46836,0.42897,0.29865,-0.29062,0.39698,-0.13555,-0.52203,0.078188,-0.32166,0.14976,-0.2131,-0.11995,0.17079,-0.076449,0.16808,0.044276,-0.15656
0.35403,-0.40583,-0.063463,0.14368,0.18562,-0.23115,0.29901,0.35938,0.054625,0.22165,0.18588,-0.094824,0.058829,0.037887,-0.15779,0.33945,0.36552,-0.41645,-0.25205,0.0098171,-0.042869,0.22255,0.14803,0.13341,-0.45495
0.39669,-0.53256,-0.076788,0.048314,-0.28093,-0.42321,0.35131,0.38625,-0.22774,-0.053993,0.92154,0.25452,0.24831,0.69374,0.58439,-0.091049,0.48493,0.74911,0.037406,-0.99764,-0.87105,0.14647,-0.081517,-0.79082,0.12433
0.27452,0.66986,-0.29144,0.7791,-1.5784,0.91722,-0.12507,-0.18414,-0.51746,-0.24036,0.95266,1.2822,0.25408,-0.1042,0.9579,-0.10779,0.19507,0.35668,-0.70088,-1.4452,0.755,-1.1015,0.36878,-0.21389,-0.15279
1.3206,-0.085646,-0.81584,-0.041551,-0.6525,-0.081586,0.38711,1.4124,-0.10667,0.060053,0.10239,0.345,-0.27197,0.39837,-0.1659,0.18495,-0.95044,-0.10451,-0.64243,-0.23129,-1.0928,0.71005,1.4224,-0.20534,0.10504
0.1685,0.20688,0.50626,0.25197,0.4498,-0.20333,0.26235,0.14,-0.0060259,-0.056573,-0.32531,-0.11727,-0.10776,0.11854,-0.31028,-0.10633,-0.14491,-0.040357,-0.21603,-0.0075205,0.12304,-0.013067,0.1124,0.39439,-0.079355
0.40887,0.40044,-0.10516,-0.15899,-0.011252,0.52528,0.10839,0.28913,0.014487,-0.4114,-0.58536,0.15252,-0.15746,0.43503,0.17762,0.34239,-0.22952,-0.00046613,0.39706,0.13784,0.2608,0.21129,-0.66898,0.18589,-0.71845
0.6385,0.44324,0.30094,0.1076,0.21435,-0.014481,-0.16173,-0.32922,0.097672,0.17109,0.25973,0.25147,0.31379,-0.20697,-0.73639,0.25237,0.036219,-0.47057,-0.44601,0.12377,0.72399,-0.085019,-0.25474,-0.14687,-0.08274
0.58411,0.36305,0.50262,0.32725,-0.33505,-0.18728,-0.34471,0.1088,-0.23173,0.05136,-0.3351,-0.22694,-0.027741,0.30795,0.16179,0.087402,0.25399,-0.47528,0.38809,-0.26702,0.11646,-0.20703,0.21735,0.3728,-0.20516
0.49908,1.2647,0.59571,0.063025,0.38091,-0.44082,0.087016,-0.77981,0.21577,-0.37608,-0.090016,0.42345,0.21683,-0.72661,0.031685,-0.51031,-0.069629,0.1956,-0.55727,-0.060508,0.42148,-0.15689,0.3763,-0.28735,0.2837
0.3218,0.69313,0.19915,0.029323,0.22272,0.22503,-0.29058,-0.12216,-0.049854,-0.33036,-0.19576,0.032944,-0.51404,-0.13796,0.18843,-0.074997,0.39383,0.36456,0.16834,-0.22369,0.17479,-0.29621,0.19087,0.040492,-0.0098014
0.5729,0.065389,0.34053,-0.084287,0.072185,0.024178,0.032677,-0.032937,0.23789,0.22085,-0.0020031,-0.058439,-0.15533,-0.021059,0.095318,-0.2304,0.11664,-0.27931,-0.13688,-0.0022328,-0.29497,0.23827,0.08656,0.23589,-0.041431
1.2647,0.66887,-0.29415,0.39451,0.018034,0.059689,0.46637,-0.36945,0.41952,-0.29826,-0.14002,0.2118,0.042436,0.077219,0.035832,-0.43675,-0.37362,-0.01565,-0.43799,0.1983,0.06103,-0.38576,-0.39003,-0.44754,0.67092
0.65974,0.21976,0.27264,-0.15185,0.1296,-0.16438,-0.01018,0.031007,-0.13656,-0.33484,-0.024014,0.077088,0.037,0.00072465,-0.072891,0.31152,0.38398,-0.09471,-0.1576,0.0023793,-0.053148,0.071159,-0.099493,0.12043,-0.017345
0.69348,0.2401,-0.001303,-0.2879,-0.12058,-0.0090221,0.022248,-0.19247,-0.097508,0.23413,0.31133,0.27433,0.74226,0.06964,-0.070013,-0.18147,-0.4762,0.31499,-0.25328,0.26494,-0.0027904,0.074289,-0.393,0.15341,-0.30959
0.28552,0.20226,0.44973,-0.096536,0.23677,-0.22197,0.061551,-0.10488,0.67054,-0.25042,0.084784,-0.059881,-0.16337,-0.032785,0.11131,-0.53304,0.33606,-0.20645,0.40364,-0.0022962,-0.32444,0.18152,-0.12768,0.462,-0.36193
0.381,0.55345,-0.009002,0.25186,-0.12172,-0.062593,-0.0063972,-0.0063974,0.06827,0.36563,-0.068803,0.45544,-0.2082,-0.2082,-0.42856,0.48821,-0.1923,0.18933,-0.043702,-0.1827,-0.070903,0.55372,-0.067039,-0.65478,0.024385
0.053543,0.2258,0.24033,0.13671,-0.1104,0.11918,0.14762,0.11101,-0.25199,0.079836,-0.061751,0.50808,0.31012,0.054694,-0.081095,0.0036432,-0.36574,-0.0073943,-0.16879,0.06026,0.029308,-0.062311,0.036782,0.025932,-0.033376
0.5905,0.12226,0.13812,0.059161,-0.41185,0.069339,0.40137,0.12499,0.20207,0.012652,-0.045843,-0.27705,-0.096368,0.049768,-0.45844,0.035461,-0.1049,-0.021769,0.022833,0.36492,0.2584,0.0093842,-0.17626,-0.1523,0.28356
0.17271,0.49801,-0.10778,-0.12034,0.4983,0.059613,0.09256,0.065523,0.085663,-0.13456,-0.11967,0.20695,0.26566,-0.0055432,0.065329,0.019485,0.1273,-0.29551,0.0016176,0.22222,-0.19143,-0.075382,-0.02561,-0.13153,-0.17359
0.43436,0.7177,0.64102,0.4907,0.47397,0.12291,0.074686,0.27933,0.24273,-1.1487,0.022705,0.31454,-0.246,-0.010479,-0.0020312,0.225,-0.51656,-0.13937,-0.82853,-0.40716,-0.76156,0.31122,-0.71788,0.41948,1.0079
0.23739,0.095725,0.16161,0.33735,0.092017,0.080137,0.17268,0.23897,-0.13871,0.013837,-0.088606,-0.15089,0.0326,-0.21786,-0.084954,0.027701,-0.09562,-0.081136,0.10991,-0.037136,0.13192,0.12237,-0.0012303,0.0034238,0.03849
0.19367,0.13523,0.051058,0.46871,-0.19136,0.21602,0.0091861,0.23608,-0.086709,0.20602,0.15226,0.02571,0.085165,-0.28389,0.46668,-0.066311,0.032874,0.17345,0.07419,-0.24872,-0.20317,0.13984,-0.13397,-0.36559,-0.086429
0.5231,0.24653,0.039254,0.27319,0.046799,0.11619,-0.25036,0.03168,-0.10707,0.26114,0.32232,-0.033726,-0.018342,0.22049,-0.049659,0.41144,-0.048049,0.32631,-0.40716,0.062036,-0.20249,-0.41632,0.015652,-0.059095,-0.30387
-0.03753,0.045753,-0.02811,-0.0085388,0.19702,0.21333,0.051703,0.25016,0.0067775,0.1092,-0.14258,0.10418,-0.066476,0.16548,0.032734,-0.14027,0.12716,0.024516,0.0020306,-0.095441,0.0044767,0.018434,0.13468,0.062541,-0.031226
1.5718,-0.14401,1.6927,-0.42543,-0.15109,1.4337,-1.1577,0.72932,-0.52256,0.34331,-0.46054,-0.1397,-0.1489,0.85637,-1.0671,-0.87064,-1.2236,0.23929,1.0995,-0.042755,0.042964,0.56307,-0.95287,0.29623,-0.56134
0.70691,0.1098,0.19463,0.0093825,0.2071,-0.41453,-0.23756,0.56646,-0.17382,0.011308,0.26691,-0.044422,-0.18637,0.26803,-0.020371,-0.0022828,0.14312,0.18973,0.10008,-0.36197,0.10141,-0.13579,-0.23932,-0.043766,-0.014651
0.39592,0.48236,0.87143,0.28038,-0.13106,0.36639,-0.22955,-0.44516,0.24686,0.41083,0.013127,-0.68077,-0.7123,0.16992,0.22977,-0.27911,-0.018143,0.54816,0.23434,0.34979,-0.39329,-0.70733,-0.2808,0.43446,-0.15624
0.5417,0.16613,0.014671,-0.12125,-0.0047915,0.15691,0.021775,0.20352,0.0087832,0.030308,0.26644,0.14457,-0.13428,-0.097339,0.044955,-0.14162,0.068577,-0.050697,-0.18919,0.17248,-0.13483,0.19026,-0.023425,-0.083089,-0.050563
0.80993,0.22439,-0.30559,0.52448,-0.46501,0.15262,0.26821,-0.048931,0.22654,0.037479,-0.063586,0.0037952,0.3533,-0.25039,-0.24023,0.15513,-0.023717,0.058833,-0.18574,0.02089,-0.15042,-0.25581,-0.20203,0.038079,0.31777
0.23905,0.27785,-0.00061385,0.094936,0.27305,0.02197,0.15037,-0.027699,0.099573,-0.017196,0.2347,-0.0011921,-0.13342,-0.035454,0.3139,-0.19435,0.049066,-0.027835,0.14762,0.033601,-0.081633,-0.22274,-0.029201,-0.17291,0.008562
0.47144,0.11553,0.25358,0.026249,0.09191,0.088235,-0.081194,0.062283,0.093593,-0.13626,0.13438,0.26804,-0.062733,0.079318,0.1083,0.17974,-0.10767,-0.22777,-0.13183,-0.046711,-0.27689,0.12149,-0.081421,-0.088729,0.14713
0.25506,0.0095273,-0.1669,-0.0060847,0.52098,-0.063753,0.35683,0.042558,0.75096,-0.10016,-0.45149,-0.085981,-0.35377,0.65106,-0.011335,-0.018652,0.077694,-0.48748,-0.036303,-0.68303,0.29684,0.35671,0.03823,0.23864,-0.13015
0.59033,-0.076458,0.40681,0.44253,-0.06841,-0.43997,-0.090871,0.52657,-0.081627,-0.090809,0.23018,0.28705,-0.021315,-0.31941,-0.10188,-0.13777,-0.23262,-0.12689,-0.0038598,0.28339,-0.31539,0.24831,0.112,0.29429,-0.31419
0.41896,1.1844,0.70835,-1.123,0.83364,0.90779,-0.75231,-0.11555,-0.56988,1.1018,-0.070679,0.61871,-0.68757,-1.7312,0.89765,0.55295,1.5595,0.40662,-0.16309,-0.083456,-0.92281,-0.20736,-0.13622,-0.10597,-1.5213
0.068315,0.2176,0.25063,0.31468,0.34921,-0.10097,0.1671,-0.21679,-0.075333,0.23557,-0.05067,0.2816,-0.013532,0.068769,-0.23022,0.18543,0.096031,-0.044498,0.12321,-0.098347,-0.10409,-0.17852,-0.051881,-0.30399,0.1107
-0.11898,-0.1576,0.5941,0.58837,0.13156,0.13016,-0.046367,-0.030187,-0.10771,0.34079,-0.013879,0.13839,0.017853,0.24272,0.20061,0.022705,-0.56258,-0.29237,-0.019643,-0.0096025,-0.10518,-0.032211,0.075745,-0.073079,0.086372
0.68335,0.20024,-0.02055,0.042666,-0.042736,0.075612,0.15555,-0.40692,0.25611,-0.032881,0.19307,0.26402,-0.0051741,0.058918,-0.063719,-0.073745,-0.05285,-0.22707,-0.21027,0.14608,-0.18438,0.092267,-0.13625,0.31251,-0.023871
0.39403,0.059816,0.13576,0.077692,0.12742,0.13077,-0.14526,0.35771,0.19551,-0.002983,0.044586,-0.013083,-0.092351,0.062717,0.011788,-0.24689,0.073478,-0.018334,-0.073206,0.004747,-0.056732,0.22839,0.017886,-0.21919,-0.054262
0.42102,0.030601,-0.069378,0.14097,-0.036494,0.16144,-0.066646,0.15056,0.18362,-0.077267,0.26306,-0.14527,-0.050214,-0.11914,-0.13574,-0.20692,0.10479,-0.0022376,-0.019581,0.14565,-0.021609,-0.046398,0.099418,0.13502,0.16075
0.29724,0.36033,0.13033,0.6095,0.056694,-0.035433,0.14046,0.59032,0.069487,-0.12691,0.0046473,-0.23511,0.095578,0.16858,-0.40822,-0.11865,-0.25841,-0.040612,-0.12799,-0.00036854,0.00362,-0.15628,-0.049285,0.11236,-0.081884
0.84538,-0.026178,0.093401,0.067055,0.026854,0.13409,0.10581,-0.1208,0.001214,0.21792,-0.035798,-0.032436,-0.061774,-0.12934,6.6216e-05,0.0017414,0.14001,0.0095205,0.014858,-0.11458,-0.037397,-0.11573,0.10384,-0.037952,-0.049767
0.55895,0.27327,0.15543,0.03924,0.066638,-0.13632,-0.02436,0.15201,0.019367,0.087409,0.052529,0.22194,0.036696,-0.28177,-0.041754,-0.2823,-0.03892,0.18264,0.15491,-0.15232,0.028229,-0.091125,0.16118,0.047675,-0.18924
0.41135,0.069306,0.071287,0.67013,-0.13073,-0.4005,-0.37999,-0.067823,-0.18377,0.32317,-0.31812,-0.42094,0.62119,-0.0011309,0.18763,0.21376,0.2149,-0.039467,-0.15655,0.39248,-0.23049,-0.09099,0.12718,-0.035183,0.15329
0.18458,0.21347,0.060705,0.28104,-0.081154,0.10104,0.35677,-0.2853,-0.0311,0.24645,-0.068287,0.058896,0.22554,-0.36287,0.18674,-0.27314,-0.045612,0.015557,0.17305,-0.027684,0.010019,0.046943,0.041356,-0.030051,0.0030423
0.78956,0.10109,0.21211,0.22634,-0.21553,-0.088836,-0.42109,-0.039726,0.14719,0.12912,0.2538,0.3046,-0.35927,0.21746,0.019625,-0.3132,0.088412,-0.090891,-0.030005,0.015177,-0.20311,-0.073331,0.13758,0.035436,0.15749
0.67567,0.26965,-0.28542,-0.077173,0.24485,-0.46504,0.15716,0.08537,0.34851,0.01194,0.11549,0.026334,0.099787,0.35157,-0.029388,0.050715,-0.074781,0.23143,-0.41895,-0.12333,-0.28102,-0.51716,0.081756,0.25335,0.26869
-0.31758,-0.37233,-0.26918,0.44171,0.26919,1.14,-0.34479,0.26222,-0.023704,0.86652,0.27671,0.75759,-0.058585,-0.46916,-0.21666,-1.0156,0.040118,0.71255,-0.49842,0.16978,-0.19886,0.14761,-0.52113,0.017363,0.20464
0.91992,0.15117,-0.38766,-0.0066052,0.092902,0.38657,-0.084526,0.28506,0.34902,0.33182,-0.69174,0.035236,-0.63967,-0.053428,0.20291,-0.24042,-0.45975,0.039532,0.25802,0.23851,-0.16484,-0.097902,0.066459,-0.04933,0.51875
0.86254,-0.0069173,0.12184,0.19628,-0.057315,0.1137,0.14778,0.12638,0.14489,0.38554,0.12383,0.079613,-0.44923,0.19842,-0.21636,0.17791,-0.14778,-0.066496,-0.13258,-0.31529,0.26374,-0.15486,-0.26188,0.22746,-0.36121
0.27353,0.52749,-0.16554,0.046936,0.30914,0.41773,0.33479,-0.37617,-0.39574,-0.0048404,-0.18265,0.22966,-0.18773,0.32227,-0.20373,0.28894,0.19687,-0.39042,-0.0023682,-0.19629,0.29321,0.090956,-0.092936,0.028655,-0.16176
1.053,0.23646,0.13789,0.079169,-0.020767,0.70414,-0.60464,-0.39418,-0.49108,-0.28636,0.050111,0.16483,0.39388,0.36372,-0.19662,0.27939,-0.13302,0.35879,-0.59434,0.16785,-0.24724,0.02862,-0.28025,0.97105,-0.74044
1.1199,0.61373,0.2522,0.76213,0.36408,0.0051714,-0.39027,0.32777,-0.071675,0.21048,-0.11767,-0.14822,-0.50305,0.26998,0.010563,-0.099726,-0.084128,0.35319,-0.37895,-0.31489,0.11252,-0.14745,-0.61074,0.065621,-0.60054
0.19813,0.4752,0.11884,0.42387,-0.13209,0.21678,0.31042,-0.4478,0.19185,0.2801,0.38505,0.10305,0.082925,-0.47204,-0.22137,-0.24932,-0.32528,0.042721,0.18596,-0.21972,0.14876,0.24331,-0.099385,-0.26477,0.024819
0.30829,0.96797,0.70379,-0.46032,-0.038455,-0.16758,0.14443,0.20847,0.039803,-0.49553,-0.31469,0.41237,0.034061,-0.087495,0.11249,-0.13376,0.001767,0.030147,-0.18032,0.23333,0.13776,0.017597,-0.065931,-0.091764,-0.31645
0.70152,0.47294,0.038197,0.0012006,0.85447,-0.72405,0.24749,0.15477,0.19505,0.12528,0.038929,-0.057847,0.012056,0.29496,-0.7837,-0.51939,-0.38063,0.12348,0.022663,-0.4835,-0.16421,0.071678,0.55258,0.20738,-0.0012922
0.26039,0.7525,0.058728,0.44087,0.37615,0.54772,-0.86118,0.17169,-0.19649,-0.36819,-0.26249,0.39658,0.0022152,0.42096,0.2467,-0.44217,-0.30946,-0.096512,0.21198,0.011858,0.17168,-0.40496,0.084672,-0.04853,-0.1647
-0.32479,-0.078871,0.11734,0.3562,0.51018,0.67146,0.44989,-0.081159,0.78115,0.20158,-0.19248,0.36879,-0.20142,0.17282,-0.84588,0.3636,-0.17943,0.0039514,0.36805,0.13022,-0.91965,-0.063031,-0.4584,-0.11643,-0.03371
0.58968,-0.31286,0.44329,0.68578,-0.049983,-0.16587,0.71103,0.44939,-0.040829,0.072295,-0.27642,-0.60715,0.32927,-0.63761,-0.43121,-0.17672,-0.71616,-0.31498,1.001,-0.65494,-0.0011382,-0.31189,0.65941,0.42083,0.33579
1.0131,-0.010034,0.47737,0.40837,0.1336,-0.59701,0.56265,0.10731,-0.4069,-0.30243,0.22859,-0.093395,0.008056,-0.19315,-0.78889,0.1457,-0.029032,0.18254,-0.12033,0.32771,-0.24385,-0.82699,0.33262,0.3388,0.34561
0.36261,0.37581,0.052307,0.13203,-0.010204,0.015717,0.07878,0.063124,-0.01569,0.094176,-0.25656,0.0016221,-0.08615,0.27176,0.064403,0.20346,0.12851,-0.0098987,-0.057178,-0.0095805,0.34183,-0.43635,0.024871,-0.15772,-0.17168
0.88764,0.14694,0.17299,-0.0469,0.0040985,0.43273,-0.071502,-0.089632,-0.066656,0.23976,-0.0074056,-0.34405,0.32,0.024121,0.19446,-0.086105,0.072802,-0.3237,0.31027,0.39444,-0.57425,-0.58283,-0.10473,0.33723,-0.23971
0.47239,0.48593,-0.13378,0.52164,0.14824,-0.12114,0.27707,-0.21503,-0.16219,-0.044858,-0.06642,-0.24724,-0.080155,-0.28861,0.11765,0.17092,0.068459,0.035209,0.09174,-0.060376,0.039291,0.0016374,0.027205,-0.012367,-0.025203
0.53019,0.18806,0.24851,0.0073699,0.46077,0.20925,0.35004,-0.075627,-0.11251,-0.018009,-0.292,0.073347,-0.16836,0.085393,0.19444,0.062134,-0.064998,-0.43028,0.18445,0.0081117,-0.17066,-0.015084,-0.14984,-0.38225,0.27754
0.37547,0.23111,0.2429,0.11282,-0.02447,0.1309,0.1135,0.15296,0.17239,-0.01544,0.0077264,-0.0083756,-0.017035,-0.010135,-0.21303,0.06855,0.0086107,0.060631,-0.082743,-0.033242,-0.14886,0.12571,-0.17233,-0.0058056,-0.071799
0.63708,0.099104,0.10022,0.08077,0.74316,-0.01848,-0.6332,-0.15932,0.20876,0.47254,0.077943,-0.015542,-0.17306,0.26032,-0.24283,-0.03952,-0.30929,-0.30868,0.19657,0.093425,0.25659,-0.30944,0.35375,-0.52715,0.15628
-0.45395,0.020918,-0.30535,1.4716,-0.17853,0.085681,0.12365,0.1267,0.02296,0.3377,0.13727,0.72345,0.1259,0.17754,0.10899,-0.42407,0.44355,-0.033464,-0.064508,-0.52426,-0.42395,0.36383,-0.88392,-0.018408,0.040662
0.4531,-0.00026592,0.16187,0.147,0.11081,0.13186,-0.036705,-0.014943,0.15378,-0.15188,0.14362,0.066633,0.087777,0.0051896,-0.0021179,0.076239,-0.060797,-0.079733,0.11512,-0.044534,-0.015604,-0.027419,-0.050141,-0.10023,-0.068639
1.3687,-1.0057,1.5783,0.069582,-0.034412,-0.92071,-0.55844,1.2972,0.062167,-0.29353,-0.417,0.053403,-0.88082,0.46677,-0.17425,0.00035672,0.46589,0.013787,-0.24455,-0.30316,0.11875,0.75253,-0.058056,0.020713,-0.37752
0.57494,0.20748,0.57806,0.045265,-0.13557,0.069543,0.085981,0.88999,0.19891,-1.1395,-0.089567,-0.40763,0.2794,-1.412,0.82019,-0.037275,0.30471,0.20172,0.26629,0.060132,-0.21327,0.44595,0.088247,-0.91597,0.23409
0.11628,0.0684,0.37319,0.09687,0.094452,0.15866,0.20901,0.059848,0.11714,-0.12801,-0.060114,-0.079294,0.074027,-0.079601,0.12713,-0.14772,0.01808,0.028747,-0.033626,-0.019316,0.00076104,0.0061029,-0.033245,0.041235,-0.0090029
0.42673,0.19243,0.65785,0.19373,-1.6804,-0.35939,0.35591,-0.18933,0.27613,0.23664,0.29965,0.0047305,-0.05945,0.25543,0.31899,-0.0076959,0.81279,-0.029056,0.092053,-0.39418,-0.19333,-0.41269,-0.11583,0.34659,-0.02831
0.31715,0.20044,0.16282,0.2883,0.058606,0.034628,-0.20075,0.027493,-0.038622,-0.087494,-0.33777,0.10739,0.10761,0.078174,0.01616,0.093474,0.0039797,0.14732,-0.26168,0.050528,-0.037112,0.065455,0.14649,-0.020281,0.077682
0.47612,0.17695,0.2122,0.095502,0.078644,0.21326,0.47252,-0.29902,-0.10533,0.10747,0.048793,0.10839,0.0032876,-0.15402,0.19885,0.032452,-0.16429,-0.12962,0.15669,0.031313,0.018143,-0.084442,-0.074551,-0.21422,-0.2051
0.30299,-0.089664,0.33251,0.47197,0.084261,0.0001436,-0.065456,-0.029364,-0.060766,0.11376,0.035459,0.19771,0.39084,-0.35574,0.013571,0.00063679,0.00064675,0.077212,-0.017009,0.1856,-0.32106,-0.32107,0.062274,0.080493,-0.089949
0.21465,0.13357,0.25842,-0.067541,0.49648,-0.52277,0.35925,0.14083,0.42068,0.54165,0.35731,-0.1099,0.14534,0.097011,0.36294,-0.51452,-0.14296,-0.17776,0.13082,-0.015123,-0.38426,-0.52976,0.36905,-0.24422,-0.31918
0.36057,0.2129,-0.15366,-0.0012081,-0.12412,-0.19351,0.62441,0.36835,-0.095736,0.18329,-0.041033,-0.17865,0.29777,-0.13914,-0.023815,-0.077664,0.21526,-0.15121,-0.008516,0.00306,-0.060839,-0.11403,0.022795,0.070905,0.0038233
0.18258,0.12524,0.2405,0.11986,0.13243,0.07151,0.14978,-0.080825,0.00020613,-0.014917,-0.056105,0.056718,-0.041231,0.028253,0.020142,-0.0041919,-0.069009,0.14785,0.13553,0.0082142,0.12362,-0.21297,0.20715,0.038841,-0.30918
0.32402,0.51096,0.3744,-0.0028486,0.049241,-0.18354,-0.25204,-0.13941,0.24621,-0.037139,0.14226,-0.18801,-0.043454,0.025097,-0.020568,0.15773,-0.068904,-0.068877,0.028117,0.1377,0.0011893,0.001237,-0.23294,0.10192,0.13765
0.5105,0.028632,0.0131,0.10752,-0.022928,0.038319,0.41871,0.2006,0.13159,-0.19451,-0.26062,0.16015,-0.39281,0.39612,0.45701,0.31094,-0.38215,-0.075795,0.19225,-0.2432,0.28409,-0.27927,0.33835,-0.080754,-0.65585
0.072665,0.26233,0.32968,0.086793,-0.25558,0.51561,0.26451,-0.090438,0.53605,0.068684,-0.11501,-0.11501,0.27168,0.058018,0.079399,0.50075,-0.055769,-0.055783,-0.49823,-0.70167,-0.20839,-0.0029258,-0.0017826,0.80106,-0.74663
0.65577,0.25637,0.65778,-0.054698,-0.19679,0.15934,0.0089789,-0.0077289,-0.034116,-0.12686,0.41127,0.24518,0.31676,-0.34191,-0.26286,-0.10341,0.10326,0.15671,0.055003,-0.4733,0.18912,0.11367,-0.57626,0.018921,-0.17023
0.6092,0.16693,0.40386,0.69516,-0.11744,0.2446,-0.38785,0.07672,0.16283,0.06391,0.14884,0.16028,-0.57543,0.025543,-0.34252,0.31851,0.072431,0.035901,-0.75042,-0.048634,0.096027,0.28612,-0.091447,-0.296,0.042886
0.55354,0.29545,0.6566,-0.11907,0.054233,0.38952,0.17472,0.16,-0.27918,0.19434,0.01003,0.2577,0.055595,-0.10946,-0.12369,-0.026168,-0.26063,-0.33867,-0.26217,0.16608,-0.17969,0.013487,-0.13969,-0.12032,-0.022543
-0.29538,-0.22719,0.014373,-0.30871,-0.16484,0.34744,-0.6171,-1.0287,-0.056588,1.4521,0.48903,0.49069,0.048922,0.75784,-0.37366,-0.088388,-0.034785,1.2615,-1.3159,-0.0021065,0.24724,0.19128,0.61047,-0.33975,-0.057672
0.34185,0.28565,0.21406,0.10917,0.036072,0.0029138,-0.027957,-0.12753,-0.11744,0.090614,0.17532,-0.012103,-0.0061404,0.053555,0.056538,0.039031,-0.0047934,-0.034515,-0.040252,-0.070172,0.039128,-0.070044,0.042409,0.031485,-0.0068452
0.051413,0.084282,0.26948,-0.11074,-0.11533,0.56156,0.52632,-0.19441,0.80003,-0.19087,-0.34082,0.41596,0.18804,0.15016,-0.23849,-0.0792,-0.18995,-0.25529,0.33464,-0.43265,0.30393,0.26252,-0.23446,-0.010015,-0.55611
0.16012,0.23925,0.16017,-0.00054436,0.24313,0.036123,0.17902,0.034659,0.15776,0.0386,-0.077777,-0.132,-0.061473,0.0070542,0.18837,-0.094042,-0.012756,0.084869,0.054228,-0.066201,0.022078,0.042934,-0.22048,0.017071,-0.00016693
0.37425,0.3731,0.19217,0.12301,0.196,0.069093,0.012882,0.41305,-0.35973,0.2042,0.23904,0.037254,-0.2926,0.028764,-0.24096,-0.24662,0.10718,-0.022539,0.059147,-0.044225,-0.17029,0.17049,-0.0093844,-0.070216,-0.14308
0.45899,-0.077057,-0.0038559,-0.002243,-0.22159,-0.045264,0.21336,0.22613,0.21671,-0.042856,0.37226,-0.00050818,0.096977,-0.1725,-0.32656,-0.45083,0.1698,0.1326,0.19692,0.39157,0.15943,-0.10661,-0.26765,0.047094,0.03567
0.39334,0.015838,0.7578,0.12305,-0.14768,0.38542,0.17062,0.25933,-0.077499,-0.055617,-0.18762,-0.18198,0.39913,0.011472,-0.26711,0.4078,-0.091207,-0.20786,-0.30012,-0.076897,0.39496,0.05006,0.014642,-0.11193,-0.67794
0.6641,-0.4609,0.50831,-0.054965,0.11424,-0.28006,0.74783,-0.10175,0.083562,-0.045557,0.064694,0.087617,0.012588,-0.093963,-0.0075953,0.26584,-0.22836,0.16241,0.096465,0.44715,-0.10685,0.19672,-0.77209,-0.1944,-0.10505
0.15766,0.45939,0.25231,-0.074157,0.39494,0.4718,0.22697,-0.15836,0.41056,-0.34203,0.12415,-0.7608,-0.19153,-0.58128,0.12241,0.21729,0.18616,0.27209,0.64317,0.33084,0.020225,-0.12097,-1.1125,0.1129,-0.0612
0.98807,-0.06872,0.6077,-0.88858,0.56995,-0.16904,0.17892,-0.24006,0.1104,-0.18996,0.12083,-0.1621,-0.32943,0.23937,0.066639,0.17258,0.24538,-0.050632,0.074706,-0.15772,0.090496,-0.083466,0.7289,-0.77636,-0.077872
0.92521,0.0093087,0.056036,0.33868,-0.94598,-0.58013,0.68133,0.316,0.77511,0.071346,-0.14865,-0.20068,0.63957,-0.15081,-0.34728,0.15314,-0.17472,0.2309,0.21742,-0.12516,-0.11955,-0.50719,0.00035531,0.043977,-0.15824
0.67768,0.36277,-0.049642,0.1122,0.17245,0.011776,0.081487,0.028175,-0.13041,0.02385,0.11109,-0.18327,0.054209,-0.093318,-0.057646,0.11335,-0.056326,-0.11031,0.10472,0.097206,-0.15694,-0.055849,0.015179,0.068236,-0.14067
